{"layers": [{"weights": [[0.02196691493073466, -0.046876790126162464, 0.05313522710595217, 0.07561248310578783, -0.05633832641627419, -0.049646827014458994, -0.08846852542123967, -0.047960164650995354, -0.04413066296144508, 0.033348608758419995, 0.043037118010377434, 0.04819138994623584, -0.04525809483753329, 0.07376817855950668, 0.07157088805371511, -0.09058003355956644, -0.08097230556988455, -0.05260834814074358, 0.04817849646521441, -0.05018352733153511, 0.036343109679360525, 0.08250282458588035, 0.04806624608173421, 0.058797200301473285, -0.07212687116796168, 0.03669923287429716, -0.002137413590078213, 0.004728922466229649, 0.08348432746476431, -0.038903545042277866, 0.0017704721427915099, 0.00304326022386589, -0.01316779343632335, 0.06220549846073087, 0.008868564049954416, 0.04445114833753888, -0.04590070374047575, -0.06947448268201885, -0.05233855347084148, -0.06400409646064217, 0.026460338131080195, 0.0157456561370109, -0.09754911682582829, -0.03276392699342241, 0.025472466369516576, 0.011813034591687348, -0.04668698720689043, 0.06878708744595456, -0.05372249864245955, 0.0997783857577555, 0.034677501776567296, 0.05505702256024472, -0.045195487342909596, -0.09271678885849327, 0.03438727699547886, 0.060615125457202684, -0.010508047555575328, 0.036744791149104145, -0.09422213124215296, -0.024996999528254862, -0.08501883212602865, 0.05422030904149104, -0.09701343119160864, -0.09018975592745038, -0.058193786619542456, 0.05080224222931808, -0.0776238627643029, 0.06500050711999808, -0.06288482705425429, -0.06571511444573548, -0.08769463446562163, 0.09339804037193705, 0.10437175369224029, -0.010785916342236026, 0.09294566312217444, 0.06445806514647553, 0.021355322255001474, 0.023963410344602504, -0.06182221092483722, -0.01920183200952961, 0.0839662719621608, -0.03337947160386464, 0.040719444491480655, 0.08590683535435484, 0.016932877302587884, 0.09103083399689987, -0.05700442500324977, 0.08602062826212725, -0.027633134118473016, -0.00031729134448776246, 0.1026716430821936, -0.09361858422652122, -0.03261035978902191, 0.02839770464313273, 0.05027759998533029, 0.05382107593893888, 0.04182254538579802, -0.09566543493786021, -0.009993524959453206, 0.07005455879549204, 0.048233975670535105, 0.12353359365867894, 0.037174613999635425, 0.0865592552656951, -0.05751718221403938, -0.00013195120095497109, -0.06516474347638329, 0.06803690177928358, -0.013378398415224323, 0.027533425639008874, 0.011263247944283489, 0.07634972854743705, -0.047594218142368486, -0.003267232363513991, -0.014971778402387522, 0.03752828380843141, 0.0944361280993508, 0.044078956847298935, 0.0023128109815934487, -0.024855364741915444, 0.03930886869889081, -0.012692561184077562, -0.11736894121740177, -0.0382692700601198, -0.11095026045550167, -0.06166477506788939, -0.09838580190256425, -0.025598639539088322, -0.005779847427061337, -0.07402853250058736, 0.016069212624331353, -0.0850054690187267, -0.018161397410650426, -0.09706963288135272, 0.07872430963537908, -0.03833423698111085, 0.0014939475036225922, -0.012384758192168475, 0.03726177798003708, -0.0042344285058063535, 0.02960813031753523, 0.00555632480041357, 0.0876581273082867, -0.05133931546145862, 0.10008216847701773, -0.0705912249346385, -0.07615105177438732, -0.0197572836347044, -0.03839912710575571, 0.10840894469019396, 0.03248218522881197, 0.01940266485370852, -0.041826643014673454, -0.1936918895712443, -0.16248891637030466, -0.20782391557365584, -0.09712850934230804, -0.18012204763288817, -0.014076354442261726, -0.042217448659567954, -0.1440748263714704, -0.12771102192760803, -0.07318793571678432, 0.06254833756659159, 0.002725856235599912, -0.0607725297176775, 0.07862927308728035, 0.002408309648923378, 0.06057495215089248, 0.0694884656657926, 0.055730576501552095, -0.010482627670249855, 0.05001442903658193, -0.08459266704411622, -0.0005359944601325464, -0.004489546040712785, 0.04080323989615482, 0.08191011707492926, -0.0348455182804288, 0.03478708010218592, -0.07436362443795862, -0.08420399232482581, -0.04345778591328164, -0.050659612251452824, 0.06027622506797053, 0.055515532317409244, 0.006841449941910978, -0.06913240069692812, -0.08145534240554805, -0.21015254436866532, -0.052619761533945916, -0.10085910518013344, -0.10716740453821853, -0.07888292725569687, 0.03244737080636407, -0.07785922329592891, -0.08420447656783128, -0.07677968080564664, 0.004039698219238292, 0.07899240449509572, 0.026395210299305454, -0.0061994218444446, 0.10313971862587011, 0.14130178160071366, 0.08634141045565849, -0.002693618953581232, 0.05855359837402596, -0.04209592432595262, 0.005423479949265175, 0.17415025108311227, 0.17855900618910692, 0.18769279707884443, 0.08856575865752923, -0.054810539786949275, -0.019359824232014752, -0.15766281525047315, -0.1354519695653472, -0.06075054413376888, -0.1224469595484078, -0.11720732412397468, -0.05234911561075966, 0.07356246336027579, -0.001421853502229341, -0.0004956990344762332, 0.05415307648130084, -0.09715130238692159, 0.0466321893776435, 0.022127664338896545, -0.05023131262034285, 0.07731911689617105, 0.008122829050845647, -0.06839791258328316, 0.09802937412626202, -0.07493681543290384, -0.01592183460576675, -0.012000606191747563, 0.17433598041843165, 0.06393310659511879, 0.046209288714018616, -0.056058150079508824, -0.12410140161030667, -0.17902706713135366, -0.04839765288664973, -0.10083629414503796, 0.012519717622961946, -0.02178907177038324, -0.04745017486558128, -0.13526835579804738, -0.13307070454550307, -0.03274310277032767, -0.005136083047581986, 0.001196212435086438, -0.028076493440469762, 0.04753393175717244, 0.04896410212802905, 0.07565872804283157, 0.04339268082132838, 0.09085303592524482, 0.07819907828701958, 0.14012703208027122, 0.0681138394848675, -0.05327526813804923, -0.017467299951266897, 0.005071602348198247, 0.15975286362512411, -0.08421697569000716, 0.03394402184253626, -0.10506569647635049, -0.15586810936628465, -0.1132010385930523, -0.018981370593346897, -0.03916663018980047, -0.14986415035589137, 0.0812751420820253, 0.07301555470849261, -0.0844315146554103, 0.03487394950203751, -0.08305376212137029, -0.015803935349128623, -0.003787436035533551, 0.021823177621595188, 0.042269257672364016, 0.009690982406847504, -0.0325750067030409, -0.09141759333074179, 0.12780176917419228, 0.16728781267825021, 0.008441033506408192, -0.06617420082184175, -0.1095228870673035, -0.09007047425844256, -0.06405569843868077, -0.010797216110531381, -0.09990748894404931, -0.18410021686218775, -0.06434696830530141, -0.13924950680169823, -0.006275726015126319, -0.09975826209891323, -0.022377850039279147, -0.02626447856701503, 0.1026248100599771, 0.056255899969905675, -0.07474633326951091, 0.04810134961835886, -0.01674573314406196, -0.027187240983807825, -0.046821326331129266, -0.06443728182470256, 0.021457993768119396, 0.08862402456812474, 0.07419782363079708, 0.0185502604939367, 0.1402094049913062, 0.02157326084753337, 0.10077233821577715, 0.010425642397296164, -0.20666894819321452, -0.1906165801443827, 0.03999254455024926, -0.016657996053479892, -0.02026997300091772, -0.10492186531990759, -0.051208447015843005, 0.043393971622954115, 0.13573225712773324, 0.07268504043571268, 0.10836740309497961, 0.14323225984075125, 0.023843058478863994, 0.10418577105959502, -0.029231487162441304, -0.056555167767157466, 0.06179096225420197, -0.03825429173362155, 0.007576765518932397, 0.0030253613289700915, -0.05151064691111978, -0.047892729726387036, -0.057258919264511515, 0.08739640540676184, 0.08943657079855157, -0.0680926161870387, -0.01789872853338957, -0.04231932061706895, -0.04532869045988396, -0.06840227519032446, 0.12084844796693676, 0.019584486120627326, -0.04713785840300487, 0.21558624877149205, 0.19759768502852773, 0.11017144748281263, -0.011791578909050835, 0.1190486627970231, 0.15569297387273073, 0.18899502649863018, 0.08551664441760255, 0.21770812738736775, 0.15658991772966066, -0.03392036297154, -0.046154304577853876, 0.05045471854069528, 0.053540946573718946, 0.09942565607294727, 0.08555400355612346, -0.0592285936410505, -0.021383597988638155, 0.01247385029223426, -0.029969795178023794, 0.050593974593201266, -0.04443697975923922, 0.007455781642693988, -0.00278692724247391, 0.1284824311726233, 0.23621066967285426, 0.07621918489091936, 0.059511264856202645, 0.18618383157445662, 0.11958043560160632, 0.13522415713789032, 0.05477011022620874, -0.11989679135898622, 0.08015123108055626, 0.05607928026162902, 0.11965592286885088, 0.1680163169364195, 0.07427571239403416, -0.03333643288603544, 0.04473597812519764, -0.036578341430291504, 0.07689176522667338, -0.0792059442097535, -0.014515304491347929, -0.001781785749477351, 0.08840518547948897, 0.044681178384569475, 0.08792690008331848, -0.009477895718734955, 0.09994649341251975, -0.008756941646609716, 0.0385374191867097, 0.17279264653074491, 0.22204542761101215, 0.09031859534594046, 0.028504358396370156, 0.06881447967874595, -0.10563535585613132, -0.1093284275245742, 0.006300879366520034, -0.13639553227670265, -0.05408479623992869, 0.18913298496619996, 0.16437335113300644, 0.003220532789261661, 0.016302814023184484, 0.0032985771177769688, -0.053406937674918754, -0.05394327314947203, 0.04102911306358603, 0.02181041010698046, 0.079187836596616, -0.0682472282103049, -0.01710472357199983, 0.00911402220020784, -0.0628147063643244, -0.0409831505721948, -0.08560299071126921, -0.027078278857699634, 0.031864860155175916, 0.2246438093277332, 0.30214550032204907, 0.10607597877233067, 0.10995044002036196, 0.006024508771442628, 0.010587105576413484, -0.14147730274324208, 0.11224883248655486, 0.0035258948952944713, 0.23425113144090384, 0.22101592514085688, 0.05169543237126355, 0.027782282208762693, -0.10254701455875728, 0.0745103796447681, -0.06915939272733239, 0.10052794311722076, 0.0842295358549708, -0.02336706150750803, -0.03370349468418958, 0.04079989911529883, -0.04114234985772603, 0.020566602921392476, 0.026631355254034088, -0.12728732237857393, -0.03258892536771195, -0.14616670662887893, 0.037620398843143055, 0.10658392169567008, 0.08711697982872073, 0.02667598620887792, -0.1609200924934782, 0.034423760019496784, -0.010200845764327579, 0.05212140527146038, 0.06256670519620687, 0.04272834990503576, 0.11315827171807812, 0.18979457745952624, 0.05526434267695786, 0.023306910967439483, -0.05865510643504988, -0.04763419289800083, -0.02613874544322211, 0.04530778573280997, -0.05613639414689567, -0.09552935262403411, -0.07110652295910191, 0.007845697550852649, 0.07592428037359314, 0.01420501079756642, -0.09766541318129719, -0.05669266129833377, -0.06224752732495415, -0.05020037319470671, -0.166267276056267, -0.17413158084510177, -0.004815543616630681, -0.057621650163797264, -0.1428806313136698, -0.028224628332085593, -0.08658350417890613, -0.05188140434656766, -0.02884542489741854, 0.09095738250209326, 0.10118772162767833, 0.10689119912492409, -0.004989339522353146, 0.014433449455677958, -0.05782906667124329, -0.10110642080313126, 0.017256826820175885, -0.034407284417786, -0.10119336473793551, -0.04974363956330534, 0.06601382950682533, 0.024049221275968105, 0.008441038309420713, -0.08262432591961476, -0.0566075640531079, -0.04870034893557261, -0.06746458242063158, -0.1560306152974584, -0.18202157599484717, -0.24169473926648805, -0.27607034837965494, -0.2487469566969532, -0.06800391991266824, -0.04607716258350531, 0.0577020846019907, 0.026140939819220974, 0.1940232872134167, 0.11568441483110084, 0.05068358473543148, 0.01519265184948367, -0.07428093665612871, -0.0674702980219857, -0.015277628942450253, 0.05032175802604041, -0.0888563489536885, -0.04588676153253212, -0.0797193756173087, -0.050475921968529264, 0.06877485215960469, 0.007815545924431096, -0.02511691678643324, 0.013680624976197216, -0.05497288842119229, -0.09132371495798608, 0.046692423229866956, -0.06454490530974452, -0.1724643251586757, -0.16973475590637094, -0.20454323632757407, -0.20132662378991795, -0.1982260145239158, -0.17989131894393204, 0.0726497661577009, -0.01313282114611226, 0.07652645441707688, -0.08612457868715463, -0.06104257622296084, -0.06411239448484571, -0.015780658966948826, -0.18984678475977976, -0.058108598254402524, -0.06149667493694668, -0.01391974405377257, 0.07418698488438237, 0.021264706027851868, -0.011653581715230857, -0.034608068196662206, -0.07919841906985901, 0.03012976574304721, 0.014278479317095276, -0.0923410567302315, 0.07818392820257802, 0.0913998369031001, -0.041758948948289035, -0.07154736490079325, -0.1487988109934377, -0.20795469587559814, -0.10758943000289822, -0.06004065059362769, 0.05849865114894391, -0.03972253639747575, -0.09558885598182514, -0.08702086194828947, -0.22025071529670218, -0.1373305737399918, -0.0660986845092951, -0.12944287752540443, -0.046424418018337896, 0.0023217861475493783, -0.004437783501857217, 0.0703537356316536, -0.08995399096400629, 0.046569730880390736, -0.025979491633941088, 0.05167015314729445, 0.08504866164195612, -0.0667005968822625, -0.10214591380107439, -0.06543665095402694, 0.06737597922365575, -0.08506685883776505, 0.0025349656429893837, -0.17214965627007206, -0.12233864197250524, -0.023144326137144365, 0.035177121606899626, 0.07237402229454534, -0.03263845280131172, -0.13382891497599966, -0.08458439452095241, -0.050410773002089064, -0.14889240158832076, -0.13648858975227726, 0.008934332918137614, -0.17714239593633105, -0.10197823379862628, -0.034447339611302065, -0.06476633942110173, -0.080348264721023, -0.04439902467662306, -0.0663618531900877, 0.021649794308067682, -0.09617145367598463, -0.013908323155680784, -0.09076120581685221, 0.05876460717315252, 0.05006694082780329, 0.023160656352590524, 0.0034796147284995153, -0.1315658555745659, -0.0011887986958176089, -0.018429699102390937, -0.004671074867812499, 0.1301514447457858, 0.11685060114253323, -0.05517199292677387, -0.009479692082528591, -0.0343899367217614, -0.04754564710304386, -0.2010005288941207, -0.06109838129397325, -0.12558501647592488, -0.12611348774020595, 0.037607081501850596, 0.014681196528376302, 0.025501263378647623, 0.08861465131161088, -0.02620903237945624, 0.06184308692868554, 0.02213545687595317, 0.05354530665571597, 0.04755877768677933, -0.05581677673252589, 0.019050217396378594, 0.029145087683707296, -0.04856063482968382, 0.01834428720121865, -0.07981390719891847, 0.02408742174115963, -0.06644792172833629, 0.19442103143968423, 0.15423605264783433, 0.026098820079298292, 0.019725618512672252, -0.013371563673197969, -0.07548728444602389, -0.06744427976644865, 0.029713381092497326, -0.03790749942018944, -0.09164387091622439, -0.10454873285525317, 0.037930580401456394, -0.04190688465487858, -0.02728342762937075, 0.008259663819116211, -0.04777802113374998, 0.017759413716468095, 0.02196384091748134, -0.05341082267527311, 0.016249881197272928, 0.0620688561221039, -0.08195355924079685, -0.03486077836200398, 0.06136369851013116, -0.01965588523754346, 0.01490797535318352, -0.08843104950965021, 0.0758383783644389, 0.07144487423087922, 0.04646283048169695, -0.008846109155985573, 0.05016632241043378, -0.09462385478529484, -0.08697503931397847, -0.001177996488481906, -0.0030562503848132103, -0.028591532998634497, 0.0438483271030286, -0.08805788227412156, 0.09851214380209304, 0.008227946726228735, 0.06871257344407578, 0.014612143288042258, -0.007375451244740483, -0.06720107699280649, -0.00982313931347463, 0.007108378131174015, -0.05599732429580084, -0.08461633844335636, 0.0014213964859413756, 0.07752852182009438, -0.10087051812899119, 0.009606445740023542, -0.025879122436274948, -0.06806099098487718, -0.018825014877495244, 0.0776740102464404, 0.14040705289613212, 0.13715540087809566, 0.0943203090930234, 0.1321941240247371, 0.0987235839773929, -0.05210120984627412, 0.11164116067842479, -0.019509437220140504, -0.029495502817834886, -0.04568441642202114, 0.061855347820119845, -0.09583311040841862, -0.08451237519425038, 0.027958002648665756, 0.052681304425728964, -0.05868729439815637, 0.04848798290788972, -0.07511466470407926, 0.09746893960000119, 0.06404943643593661, 0.07151394680477624, -0.052377840975050625, 0.03673583305981915, -0.0684177245164302, 0.04239702161417119, 0.0003449293913351085, 0.13461882465069056, -0.04240774644811433, -0.04374725288654166, 0.1367190004968604, 0.15785695033664285, -0.011143212830711312, 0.02145448539224639, 0.12895537815296204, 0.10734401464067336, 0.11550171301202934, 0.0003932884356760877, 0.09331805697447178, 0.03288149344238974, -0.004054601853396222, 0.08803452251169287, 0.05138928958266481, -0.08062016735012151, -0.08322011852051932, -0.002796448337281293, -0.03987399889860628, -0.019217929878851667, 0.028700825921918194, -0.05609434468705446, 0.06856389793887377, -0.05105412669889597, 0.08639180787774872, -0.049648111787649975, -0.07205264305708285, -0.011692266185000466, -0.015488274853172912, -0.07218893198872788, -0.06520127096620609, 0.08185447256849478, -0.09514713236570321, 0.03285254384510407, -0.056681506003714584, 0.018709407739066413, -0.05493536667111507, -0.04340769506429179, 0.07117109349637088, 0.029773522175021463, -0.04636824731529427, -0.00386389823756976, 0.08950471688233119, 0.0693547614467522, 0.0051479413426466225], [-0.05466229592274339, 0.0852772494694867, 0.0125517300727271, -0.07032478262756824, -0.009205930481923932, 0.030779639438153428, -0.07433628154579451, 0.0006219233895961018, 0.068630543856776, -0.045197103634189655, -0.06425530050772127, -0.08106875716450612, -0.023830751315039603, -0.011278342271599911, 0.055854155068610634, 0.09993120161362437, -0.049670344802571646, 0.002067762067202189, -0.05108122039966685, 0.009229458051584954, -0.04201300402837638, 0.06438472785858587, 0.02585573938386926, -0.06887751710501096, 0.03637901147704947, 0.07574616604855908, -0.03455977546759588, -0.08097679541779508, 0.07226747918653811, -0.0987046345972001, 0.054716277763571325, -0.03564433926164866, 0.08291704586158773, -0.03259820703719044, 0.0938024413804195, -0.08186563911161751, -0.02546229993956727, 0.09832561989761618, 0.08108871776558042, -0.05228344860133043, -0.06297302344157507, -0.05767109527909221, 0.04184799858533375, -0.033683843183724, 0.09061879190945984, 0.04107932118602204, -0.04340496178222, -0.03528848346795772, -0.0468185677337845, 0.026143773318332685, 0.02563608285839135, -0.0828983227924264, -0.09012426524138327, 0.07869565353264157, -0.05220593580304274, -0.01926828004797851, 0.08905258476077746, 0.059150913628767954, -0.03307854857444038, -0.054410103071236414, -0.06044643691417165, 0.07745354587674472, 0.02580930557527809, 0.061045710572800775, 0.09076293704238897, 0.057721350695914074, -0.05699821956370211, 0.0956588858774618, 0.06496163982334531, -0.03546324021091936, 0.09235535065227678, -0.031028945161332127, -0.07600303250544627, 0.05965701771250475, -0.05705944093364825, -0.05500567826094467, 0.07894777258509697, -0.03152459828268712, -0.07913454841033474, -0.05084909381996321, 0.051399041115410916, -0.0036556686640376963, 0.04870796156698978, -0.018019643523119536, 0.002475952519176247, 0.0002940684582620062, -0.0034837392118798795, 0.0586792684916737, -0.004722858837116079, -0.03663575394103946, 0.05689886163040538, -0.055844784618642805, 0.07437840784575234, -0.014788680640679324, -0.026913816333999384, -0.020416107609534936, -0.029101136441492276, 0.008788066165020625, 0.0888359491328448, 0.037193098160417014, 0.024474078235654364, 0.05789190937395205, -0.0760948359471117, 0.008471707476352376, -0.14208221700353288, 0.06922601485667045, -0.10363790311708662, 0.04552354211366009, -0.0015584531629294794, -0.0047341895062765005, 0.035096716777140526, -0.06669317410240658, 0.050361941967576235, -0.015047907469835003, -0.02744356287127282, -0.08413554439568734, 0.032074424085485484, 0.10101013842021128, 0.03444279148584928, 0.13327555564300397, 0.036293205499813186, 0.14472500722716258, 0.07540734456676787, 0.08244826142995243, 0.08787415893163521, 0.09848300915718472, 0.16358541734071164, 0.06961376510539392, -0.030202882034494533, -0.013327866439713737, -0.08611967649509221, 0.020597664701740185, -0.11140549663562303, -0.16597548653687713, 0.003654114540208913, -0.15788549636664903, -0.10927598246874129, -0.036846624505080826, -0.04447667692238431, -0.08474513905852123, 0.08634786477456471, -0.08134103663737002, -0.06651763124773752, 0.018260646273503732, 0.05340369664837578, 0.006989737399521504, 0.03317626769303756, 0.04208524662745628, -0.0007561365954711118, 0.1064318170799959, 0.1328948048523556, 0.01847082701440407, 0.03824297252563823, 0.05245320555621352, -0.0049320368158068725, 0.034482631640605416, -0.01504588163699118, 0.023891073523172983, -0.017463031727578317, -0.10267593415100985, -0.17134048115964132, -0.2268757756122761, -0.20448827516222584, -0.04828005745207827, -0.08404680741326155, 0.04316127598670191, 0.0484428297044252, -0.0190351265834711, -0.07157948229612213, -0.0874506460730095, -0.04075618000456155, -0.030160387360347422, 0.032127875388966345, -0.06594213725407987, 0.027142490829962354, -0.1090763983399012, 0.021610906492980475, -0.0761107101376205, -0.11997641238886918, -0.13927454464976657, -0.09972589480141462, -0.21754977353903376, -0.02773439037884048, 0.05147358141442264, 0.0990850873317239, 0.016030826564190113, -0.14081458458692234, -0.06442346362948737, -0.09453340838845951, -0.08105961346885078, -0.24068655922885115, -0.1290409118084131, -0.060043182846027124, -0.07418484660048522, 0.021798948689120985, 0.09587608477696247, -0.04356693891284735, 0.06010509477520427, -0.09158423423478042, -0.05368203714133806, -0.05345113691204442, -0.12056000109388479, 0.0196109534139892, -0.2021197393907195, -0.278230153470255, -0.22336223568404895, -0.2469020255710681, -0.15725090562803182, -0.2387341299253264, -0.10150905226046836, 0.03545204409288528, 0.10754086546911404, 0.06274562277876254, 0.09140333321494956, -0.0020398644125181665, -0.03816060862769603, -0.01328927138801986, -0.18614177090569906, -0.11469739750207474, -0.2500813819732996, -0.0728787418733256, -0.08771375887011369, -0.06861716036820348, 0.0894850024014268, -0.07331823047364391, -0.014870019493878667, -0.045216441184661414, -0.07341199205173107, -0.08420400579605383, -0.10835315667561343, 0.013952460842013915, -0.2320473059520308, -0.08198609700329457, -0.18384140022923334, -0.034261618960978214, -0.13008824289304644, -0.02541848984079169, 0.06129459567801999, 0.10913573899289647, 0.06910181165683954, 0.047521300155891975, 0.02116522114049208, 0.08391845386103701, 0.08672133533722497, 0.1463622048471837, 0.1331408181688815, -0.12890880761995352, -0.15683219424480083, -0.10811124844196277, -0.14229848117499452, -0.035370821603875606, 0.06523298730568407, 0.017116362442529055, 0.04665519191502515, 0.06417553150635719, -0.010073815272357643, -0.05553040080058685, -0.11333919180813815, -0.13941792331646674, -0.11770511450804602, -0.054588184369829415, -0.05870344304806905, 0.06527401625450958, 0.06312984889721215, 0.1492599597020093, 0.2293342866064822, 0.06707359675836932, -0.059349887972264086, -0.1707410017108521, -0.16650260921414012, -0.05967984491111651, 0.11770178673110683, 0.2208010273037997, 0.10242095781926185, -0.08783983875673163, -0.15912522214228114, -0.2117625764834047, -0.0977880506427317, 0.009781007247657916, -0.10070399642923086, 0.055705384045116976, 0.006605540900046414, 0.03963631341509892, 0.00878140916128896, -0.006861551134670315, 0.023059079217618364, -0.02561614024698042, -0.04570391791818771, -0.04342977317750609, 0.1531158931233392, 0.03150818780923299, 0.1888243634876284, 0.09497584124539367, 0.06387726455063271, -0.009953907778084204, -0.23673812922971166, -0.24737252532066228, -0.1338556137049023, -0.010878472739067398, -0.00878974711995334, 0.10845443355729438, -0.052882620985427016, 0.05024081629736713, 0.008223995136120562, -0.1087694221644834, -0.15667275180673515, -0.03891015529841327, -0.06583527404272889, -0.09329967802482977, -0.005147706071245194, 0.02506293293100197, 0.07952309700800975, 0.09384276433641732, 0.07206655967388965, -0.018652928301725383, 0.0323875851508794, 0.13596077971141454, 0.17958937342931777, 0.04799615896969422, 0.08163313847699648, -0.06192215943106477, -0.074693035428986, -0.0880207252908495, -0.08949352825282829, -0.06477347992389638, -0.09292616783076726, -0.03381069400506862, 0.15436831261645603, 0.24544344764665313, 0.1079562069032744, 0.11729556167317902, 0.0001212153922658533, 0.016177870540215772, -0.08341196235015806, 0.05020665266341631, 0.020616829473759375, -0.023824106429529573, 0.055547839210118695, 0.07639120948765207, 0.07443866565907259, 0.10806842584896892, -0.05354724738330663, 0.07528486133482926, 0.02018742158404618, 0.09266020028086568, -0.008372994531340173, -0.05796822995970188, -0.067673534159286, -0.11601585253197974, -0.006512990150996454, 0.01137554664758987, 0.047228016874672624, -0.09206532316725322, 0.04066261011785548, -0.016450228246217793, 0.059341016888358925, 0.126221878877975, 0.1138560880705374, 0.13411102973040237, 0.2256179261911293, -0.07913693635207783, 0.039100243242901, -0.02352196180042039, 0.09082669818377634, 0.06062263908950133, 0.016076304999304115, -0.03356105216605748, 0.10209063208368616, 0.15880416762901933, -0.035414549033439276, -0.013712481317756481, -0.11935738532775979, -0.024340752425765097, -0.02324258828582941, -0.03415046118918534, -0.1799470749912105, -0.22946330307176513, -0.16680673301279925, -0.10152654012946101, 0.05356828987342018, -0.04347643596458468, -0.10710817006551375, -0.006305001059940285, 0.13776230966350275, 0.04785463459379738, 0.25504370661639336, 0.14002127085013252, 0.06612524276001362, 0.028353213890523723, -0.057125204458267874, 0.012569265547197558, -0.011118739217137718, -0.05547057681708858, 0.03828495876625935, 0.05788345996224367, 0.007686806772715844, 0.06734613178511864, 0.02501599077175952, 0.013308292917901343, 0.005292541254383395, 0.03986761573135117, 0.043420762274819336, -0.07603398796248634, -0.00015446708421146184, 0.07720774785181689, 0.046684211520547365, 0.005440604704944753, -0.09135168796062383, -0.1410001612246263, 0.10788869798618199, 0.15384374062864903, 0.10457389617498554, 0.11225923840975915, 0.27126927340453766, 0.07730433483735753, 0.06920915123149504, 0.021531567475433583, 0.08643919108952287, 0.09786404022999232, 0.049224528725310364, -0.09021921455240399, 0.05784876279262689, -0.03790645846606745, -0.11639497880122747, 0.009050205400724317, 0.03976729555464935, -0.056757783998072554, 0.04915809466458419, 0.10138426853473502, 0.04580857958857736, 0.031097607562711446, -0.09571211532343048, -0.0547825258077062, -0.03224369849311356, -0.04143735397428357, -0.08275667775180497, -0.05026723036106364, 0.021404490034003944, -0.05379866127655898, 0.12562860823182512, 0.19085289858773766, 0.09683841322687459, -0.0441923518878303, 0.11653053266477713, 0.17754702513215367, 0.023253766427973194, 0.013746182289596382, -0.04977731751240633, -0.06336390365758339, -0.05286721020209542, -0.08020392653440094, -0.032829459734440784, 0.04481943394574951, 0.09528108449382003, -0.010456310954653058, 0.12586595549554178, 0.06971294824337075, 0.02376735325332499, 0.08955627756138186, 0.07897185173311386, -0.026130265498900525, -0.11680939612216959, -0.20954021811084317, -0.16348569683712877, -0.13135069711172762, 0.012552355454028783, -0.0003787521183711553, -0.03300366697472211, -0.030145061832875374, -0.03283286560923896, 0.025740863102902637, 0.11963527054633684, -0.013019373087037364, 0.044245790368968474, -0.06587792196590868, 0.019470040599234052, -0.0812192175907587, 0.00794289709497246, 0.059067992972994504, -0.06331146868576235, 0.05005241543887448, -0.06849091597970693, -0.08179978501386871, 0.12174915210053525, 0.0416925797826735, 0.053263475909344216, 0.21343725273141445, 0.20235589816649224, 0.10216205534750739, -0.18168497451017968, -0.166325277956333, -0.1342228135370379, 0.04264842647712922, -0.04490553962259124, -0.06745980035036696, -0.05680436345553802, -0.02272940336267738, 0.01117497444115579, 0.03217709708879336, 0.03795812752725627, -0.05879409489587956, 0.09466668322127268, 0.052036891981752126, -0.09804756181363844, 0.07254729449967605, -0.06502638376846412, -0.10171594897797843, -0.08687299399248186, 0.0008492487696266635, -0.05395655373694617, -0.016212614143178865, -0.07200265123198633, -0.036581129512427736, 0.08332249516478599, 0.1496610637973083, 0.07997564065231338, -0.10826020283149364, -0.23179266174829535, -0.11715376287421228, -0.09005259921487493, 0.0005143521893986845, -0.08375201408305703, -0.030162663207673725, 0.11442587899210427, -0.13901892319357192, -0.05274387912738976, 0.05867754654339863, 0.06493210608041917, -0.0035407888739810997, -0.07345385334953938, 0.04682925784559095, 0.022728328681791882, 0.0067568346632447185, 0.08679287058756686, -0.09470562667277958, 0.04000172140179204, 0.0704088074856844, -0.026352706683400534, -0.21367516273953047, -0.14921246238074998, 0.006119953495764968, -0.01199961622252447, 0.2503256812800974, 0.15688412926318962, 0.006287733062111566, -0.06503684126364616, 0.02211460551754258, -0.1409035675709721, -0.08056233061272113, 0.13766321870398554, 0.125419977201288, 0.15457134565817807, -0.034493819161393394, 0.09939173877412211, 0.11666058866483602, -0.0796660332188537, 0.06456463559369395, 0.043610565182319816, 0.08050368143450841, -0.03277925873734708, 0.044657395340750694, -0.0963137057337615, 0.04733189384859042, -0.09972675386216943, -0.08927512995402322, -0.05947879318758004, -0.05376587474473673, -0.0487331289005019, -0.13766061189794712, -0.019840847370118025, 0.0520203463873747, 0.010362077243532126, -0.036732382067687884, -0.09765148067351061, 0.0772288537201505, 0.011460632029816481, 0.1062850858012607, -0.02343647363983311, -0.02505465462872134, 0.07740932480724161, -0.049917673547977465, -0.03075282290592749, -0.039316701431908394, -0.05430040304330403, -0.005345565006014392, -0.016113324811237638, -0.05677724148351762, -0.022289643910713794, 0.032180876493243055, -0.05224360828226544, -0.07874334639691341, 0.10130132355751827, 0.00607725534193864, -0.06855057173714692, -0.11593384699372768, -0.054592342056093715, -0.014985400127230776, -0.10715513137816417, -0.09300404253606809, -0.0859179537223319, 0.15840203449053136, 0.09179471435707157, 0.21224355707202724, 0.1719729786748356, 0.03745139660480425, 0.06031364547520264, -0.04812668483893595, -0.06769315693944798, -0.06005230249281045, 0.020354574808445196, 0.015247147191280858, 0.01566031815892825, -0.035374437518917126, 0.003366316253308755, -0.04741275409871263, 0.078200479707043, 0.09427099471248637, -0.09474353313568817, -0.055182999240090846, 0.08740115438971402, -0.13930471956457466, -0.13492855467808898, -0.053949198697197415, -0.13391318670329244, -0.173737212910529, -0.023138367233934424, 0.007829368238565601, -0.037774647313617224, 0.20896935544260437, 0.29374772293013257, 0.21973002239489328, 0.04546879186120664, 0.1231869955405789, 0.05106315771693382, -0.1564855967743528, -0.04934751333508714, -0.014063931388208028, -0.09532125406495026, 0.010027210784289262, -0.028708949016539875, 0.03653149066382892, -0.05917590514732228, 0.04178821170671316, -0.0764446389372901, -0.0747026435352855, -0.04513122876019256, -0.04979678195594623, -0.07364280776401606, -0.0056264157107940626, -0.07876977446999467, -0.1068420393089198, -0.059258789347133446, -0.1420314344190098, -0.13000325309115723, -0.09469156770558189, 0.10090152361204058, -0.03293503416299714, 0.10325771613461236, -0.01486686105961145, -0.009843622972780953, -0.01302051294415887, -0.01021453884699941, 0.015290095390072507, -0.029318624092136224, -0.1505348431537769, -0.09492305430641672, -0.08294258694991342, 0.04519126631947971, 0.06463632985546644, 0.03595308638912669, 0.08820078317850319, 0.07216243067862022, 0.03284951129932437, 0.04103687624065702, 0.06334599946010902, 0.06848533940783101, -0.06517913326329651, -0.1268038384024901, 0.003821832867166447, -0.09282962404736742, 0.05093855403218988, -0.14151798583979797, -0.012713584243185484, -0.05098361631004786, -0.019419483938146957, 0.039234689395093086, -0.004624215800677864, -0.11495263661969138, -0.10304517539515032, -0.060614199395442006, -0.12014346236233658, -0.14948738349254276, -0.10018276472922355, -0.09322129418718399, -0.0033282636650592925, 0.010861340767056133, -0.039422824434032444, 0.09562200828041623, -0.0023447049344233646, 0.08929750773520218, 0.08548302029037128, -0.0906784037312681, -0.010163215799984696, -0.08290660052525313, -0.0816793351480828, 0.05382351657318217, 0.10516434511721864, 0.05484875678286997, -0.03242148046656636, 0.052056647389029244, 0.0780294057473386, 0.11666829701794047, 0.0006198859274213742, 0.018149641342663666, 0.07038189588775326, -0.005076625278179638, -0.02692734444494824, -0.01778420788050724, -0.11364485109022057, -0.013266048471999685, -0.01891896140282632, -0.09188121662080649, -0.05781411907023264, -0.02700583255882002, -0.015699198329542155, -0.006571865738831727, -0.06107137264332764, 0.0556915602208104, -0.08739107009114361, -0.08965211949870365, 0.03479619740090889, 0.0007319126130617482, 0.04784042641279715, -0.05181857984405578, 0.017048322738334794, 0.01827649885135529, 0.04226747735921292, 0.03692479896031698, 0.031063414347772468, 0.09736254957140965, 0.020307443596485803, 0.08669105166794723, 0.13422456993606033, 0.07741687401106953, -0.02210847974004384, -0.059294839733414116, 0.005720230413893022, -0.0797483932362632, 0.06810790571706979, 0.06372868346617971, 0.020212374646690085, -0.018088338386015975, -0.09212336784348495, -0.03615166910243757, -0.0780165080258029, 0.07601524667715401, 0.0778849819608502, -0.09387389657598727, -0.0937396622357311, -0.06064920365557294, -0.06824758340206283, 0.0623408353019726, -0.06641518986565009, 0.09162290640784353, -0.010633537530353602, -0.09296101708231247, 0.08518351650022896, 0.09591329475830623, 0.010224166142810031, 0.025626488923409643, -0.004074265229973762, -0.05036559518893071, 0.05201573199293923, -0.07034011082150025, -0.09325387127996376, 0.03313430566183487, -0.06989257717557049, 0.08974734955069576, 0.06262648598426498, 0.04516621270152722, 0.01244237407786894, 0.01855443597705944, 0.010970053755243986, -0.06900428967623162], [-0.06567766545308723, -0.04557607961915924, -0.0945577602978634, 0.04642876142017313, 0.06021386683154639, -0.09322504182179579, 0.01795182046149199, 0.0253965198138362, 0.09292935061442079, 0.010627985888287173, 0.028313766776715044, 0.04425054244838095, 0.04890104860242464, 0.0660441711520626, -0.03913842279193085, 0.024997060707119018, -0.03651174644555495, -0.0627890326382284, -0.040820311917670084, -0.09011120950251979, -0.05368961880809922, 0.024418667608270536, 0.08145195910794381, 0.06916975021362187, -0.004451051810417689, 0.09829425483268814, 0.045938017234956274, 0.08796961177910056, 0.08766553656582121, 0.06687941344587037, 0.09740581127168987, 0.0717046369290315, -0.03458399115152633, 0.0594850202090734, -0.0023492320402282163, 0.07241484281247976, -0.07075827008784172, 0.07563772743151322, 0.04701537213097885, 0.029942843549425065, 0.0361077402716884, -0.0991354002582396, -0.07914926817153736, 0.05442759645043384, -0.07487383593505559, -0.03261811201741627, 0.0797242015770798, 0.06181120355761901, 0.05651090256714243, 0.012826433154176886, -0.020059225091192248, -0.07649375965858429, -0.043967115285590566, -0.05001592334010155, -0.0845534222707709, 0.040333096444608696, 0.05145302351632905, 0.08193233939859837, -0.011462675578623835, 0.06738565206098038, 0.07375412969349565, -0.01202119591365587, 0.045265751539013376, -0.0072867005207658915, 0.09764480498669824, 0.08240817170586372, 0.014711557954300458, -0.08359458492670173, 0.02224583514370687, 0.055336979285865694, 0.033344053694008675, -0.01986020971455857, -0.09928901450699004, 0.09618516116683594, -0.05305435750182292, -0.017483338716868854, -0.09123452688392143, -0.03790218885356249, -0.033018977895673436, 0.006274679288081909, 0.010278357088210524, 0.09678731746140126, 0.056288568251726095, 0.04815873051138708, 0.008001508047786723, 0.07000056701392207, -0.030921700383798437, -0.022184511267088793, 0.05386486844875282, 0.010795489945820627, -0.09758972662667859, 0.0823911889062906, 0.09737726279291423, 0.06182968329687617, 0.05868596793372005, 0.0004188755326273403, -0.03624225826779777, -0.07334947302041456, -0.13870582787640795, 0.0021343532706102515, 0.059403274581284325, 0.016690970952256887, -0.03218157743338436, -0.09817837888467171, 0.07603151775006647, 0.03484792708302559, -0.05638311055150534, -0.002377291739144022, 0.09187311922822225, 0.07895957450455068, 0.09962681670057501, -0.0061340001554869295, -0.0820136116221013, 0.0838263108227715, 0.08644344693883202, -0.02506687203347014, -0.05419126536803703, 0.04037900089624798, -0.02720790520065764, 0.058521762200760045, -0.07250025460481503, -0.06992496546317382, 0.05065084319664967, -0.0018365735243324975, 0.05006287364567377, 0.04678619184069513, 0.022848235195070343, 0.06653211452660152, -0.09708679437802563, -0.026272375848705478, -0.003459281630273944, 0.06371317484979402, -0.14259650045749556, -0.1401042543536843, -0.030183922755658323, 0.07029787665545537, -0.011512835075484335, -0.08985727228202436, 0.09367390144356111, -0.040090454054697, -0.022555614681645353, 0.012412188378767966, 0.03533497130438974, 0.013181356119784769, 0.10156048824670649, -0.024858546167329295, 0.07026826358960658, -0.06955600821073359, -0.023029867855732328, 0.05704199797482012, -0.05027607829093735, 0.06850094518732414, -0.08808152587478196, -0.120635477016947, 0.07805311639235454, -0.026759567986862236, -0.09390744622857652, -0.1784428552653194, -0.04609814821737024, -0.09279767194764471, -0.007394832634622151, -0.19254518001095036, -0.19296273338333342, -0.09994069687972638, 0.022246522224953044, 0.03853724684891888, -0.09565875485610807, -0.05025874801175599, -0.06694597853307518, -0.01721556898613978, -0.09069254238144049, -0.06080452152127351, -0.04626237708796418, 0.04109540795270605, -0.05211038558705737, 0.027942139332844902, -0.14020891296669158, -0.041419074822781246, -0.11755106774177866, -0.034012842347515254, -0.1017619344966893, -0.06891812655690348, 0.060365380545091156, -0.07616505123577337, -0.03724861594843909, 0.041328242539888344, 0.10412290363372387, -0.010280920309797855, -0.13088500196595737, -0.17229775083029164, -0.15850674422189867, -0.031368894810050514, -0.11167374756300814, -0.014707390085985947, 0.07816656641480048, -0.018074650830397446, -0.09246723338264072, 0.05915983225501266, 0.008967249587163351, 0.002215476483068105, -0.06805588063192496, 0.04204965925424143, -0.062372379819525245, -0.05413961884945215, -0.07744754606584398, -0.04786404447003246, -0.12016600740595838, -0.05002085444263818, -0.0022489739849074993, 0.09888329428039587, 0.15631269356468458, 0.08454710030112203, 0.23616855690233435, 0.08922263608355761, 0.10648280072854505, 0.05447816949309861, 0.03658960836674198, -0.008092797004931467, -0.04210068544138831, -0.03442347823343447, 0.03360267951219527, 0.08178458843303862, 0.05191884483244979, -0.04693167425137279, -0.07053241121785737, -0.03695005459718697, 0.0812035942696183, -0.04786731212984807, 0.08102530166818589, -0.02328207190970172, 0.028702876003849707, -0.13574324694053985, -0.11483770859018363, -0.14899800319037865, 0.07736475138802147, -0.03313492933709269, -0.13144870347725543, -0.10407943325221257, -0.0351511766687068, 0.021282354449565593, 0.046421659893747684, 0.0805855023811013, -0.017780193725392506, 0.1918968592663436, -0.020901914393334713, -0.1380509816422248, -0.1072854438893419, -0.1590724261922972, -0.042520025070368714, 0.04780887901810293, 0.019314760536826167, -0.09315228062953237, -0.019387779544614073, 0.061806885552796086, 0.00574023115725724, -0.03780770090818181, 0.051327661703769845, -0.09176225575355493, -0.12571190412545533, -0.011547047188955354, -0.05440400879727515, 0.002592213261217955, 0.02060317036289713, -0.0785186785117137, 0.0070625245160480625, -0.03967436275034572, -0.057927643929951984, 0.1140717878526145, -0.03280549680991445, -0.05324565370635837, -0.015236420635255113, -0.033647496775235104, -0.14292990849643042, -0.09440751037537558, 0.009854061865465665, -0.06658231839285249, -0.12895390903947954, 0.05147545273502384, 0.10224326461595318, 0.07631807357045439, 0.07900384281569878, -0.07773436708353512, 0.05072457486565899, -0.10068350580957025, -0.003300317965288631, 0.02758690478617906, -0.03257365346036747, -0.12986365653193752, 0.03909023809741406, 0.0359678723495937, -0.0046081162648748016, 0.04373292778334929, -0.10191921091486421, -0.015165154347018837, 0.23655946602011033, 0.14268712205471668, -0.02425434120420142, -0.10382231330253261, -0.022704388109206778, 0.07606328773269903, -0.03968435076562069, 0.03527276341423231, -0.029399174088742413, -0.07180382527850825, -0.0906697168317391, 0.07562040628860467, 0.065390991479106, -0.023726826753564738, 0.006116359202409324, 0.043864763459749066, 0.09182914589169494, 0.002217611558175192, 0.05489604333789316, 0.05472584587984073, 0.019654277861378355, -0.03640907486699196, 0.1499809710672229, -0.04530937662183463, 0.01840952573538779, 0.12759921325065052, -0.08080173902727338, 0.09039743761378555, 0.13015509445709894, 0.10874769408559985, 0.013727702098393399, 0.028548143874305834, 0.11486755932280557, -0.051067191972545736, 0.019340690822065396, 0.06520409539505227, -0.10981541872762182, -0.015721141350694738, -0.042655411556594094, 0.019382523565511456, -0.07729450175923001, -0.010792397492346525, 0.016668576045573008, -0.03023234548570589, -0.07705063208251825, 0.08731805271618921, -0.03625583608144714, -0.07814988463899872, 0.07117600212072303, 0.08919233772201123, -0.06346954556856764, 0.031258628313721414, 0.020370198917033032, -0.07309373885332868, -0.11506410519465604, 0.04306477493323801, 0.08037259539856102, 0.20057574295414035, 0.10704821590395579, 0.028081224221021186, 0.027101427847852844, -0.04890512640109264, -0.0350175121904217, 0.0018269632300632341, -0.04611881402847008, 0.021341951541364666, -0.06595223508241874, -0.030097640662131067, 0.048425588864149674, 0.06618946821044269, -0.08596340056958493, 0.06876270349751795, -0.030214465365024118, 0.06666067632466893, 0.09895874886486578, 0.01450505411337578, -0.00037199898543556535, 0.09026098081420951, -0.018550054303030975, -0.05219353074021717, 0.002513081715046205, -0.15829615556171708, -0.029505768390633062, 0.13978144326380362, 0.11985611442883132, 0.13766364926270316, 0.2326766204021718, -0.015409354055484603, 0.011620658861442056, -0.11309530203247373, -0.015201152177652352, -0.07905514244043794, 0.002377012807867728, 0.046297250183979136, -0.02282587303006148, 0.017889079071504523, -0.07290459441598114, -0.014947103529630593, -0.0903486478823778, 0.019111331421229408, 0.03630076251835641, 0.022174393932806884, -0.037748313455058066, -0.04582266833492354, -0.010593023201976843, 0.06758587977719847, 0.04035328974885748, 0.04295791116517075, -0.06928544487498527, 0.03166056704296091, 0.1298612465712437, -0.024614395980405032, 0.20504650311087405, 0.08570787270322165, 0.09468923190362895, -0.103173719334504, -0.07368517444073143, -0.1284684728103849, -0.028241202477697572, -0.003940246985133454, 0.03370895565333192, -0.060770468317734326, -0.003714464080230233, 0.00455063975547523, 0.07791686645045451, -0.0888502556927332, 0.010707085429559254, -0.03773528591601447, -0.08975195839580288, -0.05158025382908642, 0.10551489763272885, -0.026757643010417186, -0.08675830788329673, 0.05174654169415002, -0.04748904248687795, 0.0364317609430882, 0.12600475933200742, 0.08006134888639313, 0.10346166067294263, 0.07128989636805236, -0.13127420306693374, 0.07047829571706733, 0.2470811894414532, -0.019593095938548903, 0.0038112742837997865, -0.10960993559724998, -0.06236025286091484, -0.07791054155826282, 0.032357098848410634, 0.011016908139618425, -0.06899927846914089, 0.07826594203233526, -0.05871998068867424, -0.07431043095131643, -0.03131502792217576, 0.09558564679066027, 0.05750785271787179, 0.008180964527130206, 0.04359052365581536, 0.0340706508675175, -0.1131165436773694, -0.015667704639220213, -0.08308374174174964, 0.02644175104338297, 0.12180859787762804, 0.12201861745253155, -0.00022409070803952998, 0.00486734495122336, -0.10376580003171489, 0.0015909148556251453, 0.14693560905226727, -0.16788072579035648, -0.09929767072990589, -0.09106973826727059, -0.10275405554567185, -0.05785856559838036, 0.01844241809633997, -0.005916422089478631, -0.058957412127652105, 0.04373347555473837, -0.08598600130581524, 0.03695736342400077, 0.008246655848790252, -0.08522892999554517, 0.06285880129743152, 0.028243009166855113, -0.021671005770589807, 0.010686695670715597, -0.0046538299806149815, -0.12726066052987653, -0.1528368663736189, -0.14241610208745967, -0.03321908816976563, -0.056242088179623374, -0.1107716836119545, 0.006618712981948118, -0.000377074261631542, 0.14539682390045217, 0.022702581430320713, -0.2768072171727689, -0.23444056990129242, 0.0003150880146419174, -0.056742188913534226, -0.08506170549881453, 0.07386923007440503, 0.04853796071483937, -0.027142100207820537, -0.07916019804977041, 0.0021984826993772816, 0.05737179898686561, 0.02617249671363443, -0.0022717400064833134, 0.08524993733114576, 0.0010635741947453827, -0.10080880601846401, 0.0013648621392827575, -0.04142960407931359, -0.11573580959816433, -0.11405822546978306, -0.2621106387576834, -0.13227687875282168, -0.2527413609211555, -0.18952009405692158, -0.03243134281696267, 0.15608214736135148, -0.02493184354344687, -0.2466967711568577, -0.20299755476039297, -0.10782374246269245, -0.13099218153239633, -0.0544885191960688, 0.04944217850946105, 0.10012485528825611, -0.08014288861413915, -0.011863684561867595, -0.01901429165044227, -0.024088618381898942, 0.040630219472427884, 0.05241507173319226, -0.018612992244444626, -0.03620760343511728, -0.050156011462195234, -0.11345873475731415, 0.04855789506407098, -0.17560250005445174, -0.19206603429557284, -0.26438118648234216, -0.19607228883349992, -0.22139676604689912, -0.1950881862769533, 0.09299078454560966, 0.056655535240505775, 0.10461288860625238, -0.260629436459324, -0.20078172429030217, -0.24565839226342245, -0.17973055452167788, -0.09379667324089433, -0.06286780728380648, -0.053178282735222536, -0.005037376619312422, -0.006414099491942428, -0.018859984165753296, -0.06922665582743201, -0.03677844330146505, -0.04647157485260679, 0.019875628275895757, -0.05921182644949026, 0.09921759224052143, -0.07110124344501607, -0.03176071190261107, -0.006989067218890021, 0.006552375553674359, -0.18679983683253729, -0.1418692761109035, -0.3462095726187763, -0.2505128987424748, 0.05370453152052418, 0.1659960156554071, 0.016515761887251405, 0.06844117685817142, -0.24214370014549655, -0.27665898784963305, -0.104270479551479, -0.11100027506324438, -0.10483959110470595, -0.03686887907987243, 0.02181932902421447, -0.048739835174776334, 0.003133218192673175, 0.10052177456288017, 0.04456008347812825, -0.060011901119614054, -0.06352803934295978, -0.07357259420116244, 0.09930025471849908, -0.08360698300847193, 0.07535534638987312, -0.01836390484944667, 0.02459388798978612, -0.1699276758641724, -0.058648075993176355, -0.13883652090604792, -0.06526382806191039, 0.06482307906690894, 0.023468643569113126, 0.09260511604629229, 0.007530699564715617, -0.030400539347039363, -0.19260675884378073, -0.1989279153079352, -0.1314111620888214, -0.1825778374568676, 0.02321530579265006, -0.02348457871773, 0.04151824001172255, 0.05541681816665943, -0.01332983799952336, 0.007562723666305431, -0.0834047404843769, -0.0863365958310028, 0.08246544220207785, 0.07607558749915264, -0.0008993139967591783, 0.056002536430931366, -0.09558616814515293, -0.0008948080325891977, -0.05853855398972291, -0.08056183634550253, -0.15913329581861932, -0.08193520091439162, 0.01902167289174226, 0.028790327649012164, 0.01519227014572843, -0.06175221476470689, -0.03774496309538796, -0.09736922292299965, 0.017524939376062858, -0.2309570586559599, -0.1795174902193359, -0.07463761653634278, 0.05719459885009077, -0.0032115409144465048, 0.06572090402675207, 0.06319705102644578, -0.028348259332017175, 0.0680972186555681, -0.06164462896831855, 0.024393666244116947, 0.0014700636165710101, -0.025899724195338994, 0.042526477654887374, 0.05925649582145426, -0.07990056282017989, -0.08440139953746556, -0.08015753063330261, -0.10182847189889002, -0.11602766020869909, 0.021027977724805146, -0.05267897203668695, 0.1300440385011015, 0.030123808816938106, -0.05074937205438536, -0.03066731139086333, -0.10722999811229722, -0.06901335744708603, -0.04691340181018355, -0.026012588228819297, -0.06833134560846409, -0.09693328613716969, -0.05736176078742422, 0.03221928995874454, -0.038619042273075915, 0.014854354085954629, -0.03649183427493633, 0.06492836948223568, -0.028066860816888483, -0.012974909346440883, 0.07255567317649234, 0.03409930110507878, 0.06097342561247677, -0.0564050452564394, 0.05394311901570596, 0.02720033256229251, 0.043261676381573355, 0.12480883219895535, 0.13345870894168177, 0.14141206159111336, 0.2084273627898706, 0.033923374473281274, -0.04300042510286984, -0.1391558378635855, -0.11239656509379432, -0.08163689389881842, -0.036650477605461564, -0.1465274443850814, 0.007861691032238804, -0.12022403087676822, 0.05172240492815043, -0.11218775897479637, 0.031717144717418114, 0.0719442068568696, -0.06796486820218083, 0.05535853150997733, 0.048654447668854156, 0.007585185852384185, 0.02909126273681037, 0.020710593211513764, -0.015610374591062293, -0.09362711744125157, 0.06425817579968818, -0.025854249440775377, 0.06877058277160802, 0.07381253988035269, 0.20554444570026675, 0.12815562348187604, 0.031206241449657682, 0.05600882574329827, -0.003950478771950859, -0.03166159003951902, -0.09648970724967541, 0.04250402147735292, 0.021012753442700646, 0.04610762817844243, -0.012285237151945804, -0.04138351380599026, -0.04432950713226746, -0.005109590795680094, 0.06263722599407945, -0.018882143842018532, -0.012649769023832498, -0.020339503768875014, -0.04392979065536143, 0.01721116969794516, -0.016861611548535896, 0.02520944828970481, -0.08633619982434265, 0.07966695396534629, -0.020213693976664577, -0.06410124285313677, 0.05258294458604335, 0.010222525725126115, 0.08198541566335495, -0.016315517168708188, 0.08786044779765269, -0.05619989513920677, 0.021425957925222904, 0.10207167644820758, 0.1385676880334091, -0.061802875292982694, -0.0716533060151773, 0.07439252155899177, 0.09906241096106361, 0.10209265545693376, 0.10251422559893666, -0.09709087775843758, -0.011788974532425344, 0.025697929731602148, -0.05013209269266126, 0.028181198624999505, -0.03534967735079726, 0.0819584809407736, -0.028783131571216022, 0.06557101323272224, -0.08049869730976136, 0.05308202034884332, -0.026651406714984175, 0.010467576379327912, 0.0674543746209422, 0.03372600290509705, -0.06502894569435737, -0.018383361956976454, 0.05841606622645489, 0.08759325257647305, -0.053663972136078805, 0.09706893734406177, 0.08993254575591793, -0.09068504443710933, 0.04900478602606727, 0.06816525458497386, -0.07659917354831187, -0.021494423164345095, 0.04473203173404162, -0.08376311094103393, -0.029702749094978678, 0.0892809320688317, 0.018797572372618518, 0.0009080379683924222, 0.060312194940612046, -0.011997135365875572], [-0.05301764062751751, 0.05830481844791416, 0.03362818555424241, 0.08568044347279322, -0.003946072680630741, -0.04920854356243168, -0.07527395848859686, 0.093058661645264, 0.03914763539974839, 0.06666865388260368, 0.058994265082766784, 0.0387258172439309, 0.09375220561644296, -0.01539295933227569, -0.04238849265150218, -0.05151736162675369, -0.06914040841178698, 0.015301324823505658, 0.09744315038785317, 0.06887234073187468, -0.05125314627375846, 0.06308442868211278, -0.04610529206758984, -0.0729655069428093, -0.08213972981227993, -0.005586688574975837, 0.028506601956647948, -0.0599446857904155, 0.017037120464383257, -0.038072014034046676, -0.0372702207869967, 0.0825571107432175, 0.07664214941386861, -0.09246854827789099, -0.04184453871274148, 0.03314005843527659, 0.04028152730242616, 0.06599579698090659, -0.04667237532274411, -0.00792429402073846, -0.08396724823969384, 0.09483145935497987, 0.0633520031001148, -0.06815773010280332, -0.038597494288297014, -0.03312875620765225, 0.038601679272281524, 0.07712252707250376, 0.02910674551920841, 0.07714884914790275, 0.008369010392868482, 0.034997414187293505, -0.041024762134316585, 0.0019306362807852695, -0.0011582898832320776, -0.0777090376480819, -0.01363525812981306, 0.008190463464671047, 0.08837477898182527, 0.0036226248209076184, -0.048275140462543026, -0.01384929315417829, 0.06466191023683732, 0.0819773760207333, 0.010125303134102556, 0.0591330128273227, 0.019909442792043455, -0.06167054628881839, 0.006394600180360369, -0.06894871327826473, 0.027490141461202565, -0.07684821510609174, -0.05807229234285742, 0.03511819103091634, 0.06331331812361049, 0.06096812095118003, 0.07333175607265927, 0.0045641469589333804, 0.0046587102897353225, 0.04400238794244527, -0.07697084689626753, -0.05124985414151016, -0.07426266883951711, 0.02454875262482714, 0.024273091790498746, 0.062013565666255016, 0.03944049820192355, 0.004198986752734074, 0.03631220507876015, 0.03034425238019272, 0.09592437205262154, -0.06997324278572437, 0.034156324240057115, 0.05179019414831015, -0.0686155386126954, -0.17780675022205725, -0.02486698317921372, -0.0570143510929221, -0.04854143001145028, -0.15870010874308554, -0.1441817372558198, 0.014217581206287681, 0.005421343381585327, -0.05070791721725575, -0.071894348871362, 0.0405132805650948, 0.04851750656672519, -0.012328845924302823, 0.09953753483158696, -6.573730651970824e-05, -0.00782895890482092, -0.06304012859516026, 0.05133361448213247, -0.06284267190261691, 0.09962701338603613, 0.08823545801497407, -0.04899712400213637, 0.015270637554607325, -0.026493275987321794, -0.049764404969156066, -0.019953707091381986, 0.020982864346137806, -0.10242210737229344, -0.12991474734155578, -0.10175948699310318, -0.24929961738513692, -0.15123479998043882, -0.10027142445226446, 0.09957643421107062, 0.039445055831958786, 0.08802199865804906, 0.012033676994140735, 0.08288192147083442, 0.04884907600992161, -0.09382737735115394, -0.008203741617208087, -0.020595780818055662, 0.042275932402785155, -0.0315301973213261, 0.0645106059401576, 0.04882659848622789, -0.07948684075520565, 0.01906971712920913, 0.073561005858941, -0.046910508622457034, -0.056497081086308944, 0.024923808523447506, -0.08655647788512628, 0.007396989518513516, 0.039770406423341634, -0.06301983732164233, -0.18927294485672988, 0.007158737451054608, -0.09927870886469164, -0.15713151412165488, -0.13765559893377705, -0.020090399935293775, 0.012484266901795046, -0.057340541423303255, 0.08295898329920112, 0.12409432214581666, 0.08984230898397506, 0.05574943417803934, -0.00614488504993393, 0.018428255128500565, -0.00832753382130366, 0.03468935356069909, -0.02984694340536786, -0.01819201451043609, -0.058790997957491875, -0.008377483654944482, -0.08173271785215808, -0.07500911197733347, -0.02638618902695661, 0.008379002457998863, -0.06920431625803515, -0.08372444100893275, 0.04802994007895391, -0.008712367811263921, 0.06010059015458943, 0.13240716061256522, -0.09068148161569448, -0.10186549556414277, 0.04366210358521972, -0.013524266220708915, 0.08826674079276688, 0.0995293396751896, -0.006803456149033898, 0.015809352073367155, -0.023461808183443407, -0.028571916891467736, 0.03891603044922355, 0.00022808000416298248, -0.04476167328970794, 0.08475859457586953, -0.024579837078217846, -0.01708728454582076, -0.008082316104035009, 0.04057042021000505, -0.06414220678836943, 0.13629401847659042, 0.05996876829804716, -0.04018465180617361, 0.1164623152668571, -0.030947091188121962, 0.04114784709848087, 0.053050631071774004, -0.10410947893772084, -0.09716124433069323, -0.10389509550695777, -0.18971779239543965, 0.004090580195940724, -0.08453552489475075, 0.031425221115547276, 0.2284961211549544, -0.013514646280624222, 0.03344761859245232, 0.133491258039431, -0.0023641185270395168, -0.0216035027748656, 0.04757991000244757, 0.025086781781420205, -0.07290496491749573, -0.04475441497361001, -0.0699999064535813, -0.07765662179209525, -0.01031727358790171, -0.0576685848270611, 0.03256379414877306, 0.2072410314897019, 0.05571329683235738, 0.3154225909006713, 0.12033719802864691, 0.06154323628488623, 0.020129207473391805, -0.09142497863639862, -0.09138464759674174, -0.1677085637312944, -0.014595195579219391, -0.09682711864298177, -0.13332346684246568, 0.0031610472487258626, 0.0663244783979101, -0.11225735212502896, 0.003722572839051483, 0.004030548611314595, 0.02839187468425213, 0.12169942933619048, 0.03322501114528273, -0.0036852986146400537, 0.00896938305558334, 0.09840716742287363, 0.06793259391513433, -0.07298931913936324, -0.015388446988698637, -0.033558593169310875, 0.08542825375910107, 0.16024120531851854, 0.18738229499776224, 0.0988268490954147, 0.009479361008615381, -0.025206765016943994, 0.013716722913891696, -0.01465998814697394, 0.07307672485154627, 0.024040171423339435, 0.0036463865832921044, -0.001868834640592294, -0.1388605040486389, -0.07901615458695342, -0.016495588356999855, -0.09390667775367756, 0.014434258808264294, -0.009235951353309298, 0.03459725134973292, -0.028988019905896556, -0.019963302444369623, 0.0839007369745301, -0.07302585790077727, 0.040157660144728775, 0.015041540785262637, 0.08553591203563313, -0.07011497275624634, 0.029939885914503847, 0.08980179331453912, -0.023105723952795438, -0.006816728567205004, 0.15462335913591777, 0.07639082062202845, 0.0006213600280545374, 0.2101662745202414, 0.20124297614433342, 0.12006081613327628, 0.005184841947184861, 0.032553554186798964, -0.02833585833936765, -0.04987345654575343, -0.002004651457903883, -0.10000207918833626, -0.08654200139943131, -0.026336069306922793, 0.12045743597027987, -0.0012374353954098325, 0.04937275468942683, -0.03165499379228915, -0.00547814491989782, 0.0637651923672207, -0.05448068064559353, -0.07182140468371813, -0.024728995023585335, 0.05859660326349725, -0.07151738354229466, -0.038672971565540296, -0.06092141484995664, 0.07449532869362895, 0.03291901125176173, 0.07530462692216179, 0.11332955415686059, 0.15310561206457576, 0.19546541419219157, 0.06926698191734898, 0.07344234763169322, -0.022223350740862638, 0.05677768029381767, 0.07702374770006828, -0.0610727856081133, -0.10950823444862287, -0.0007925788682221865, 0.06639499617113952, -0.09655959184313868, -0.07368181435322897, -0.07390872867374425, -0.0363237711341956, -0.07535435529209847, 0.08003290434450801, 0.07023277175173047, -0.0837398463416228, -0.05085617768738877, 0.04111847285545681, -0.06778029327302856, 0.05255678538243454, 0.08049318274000147, 0.02340634563120075, 0.10073174830248348, 0.04405837491431495, -0.00922780180038776, -0.10208203675746486, -0.01469115140101404, -0.06336939297607071, -0.1615351236471917, -0.06650999771721187, 0.01657512413839444, -0.07194874331342486, -0.21825830013192044, -0.11359263207503159, -0.014955500836542424, -0.04429597652817335, 0.03443472208660326, 0.03510492904552691, -0.12475073371366928, -0.0848096054962001, 0.03943601812839418, 0.06218208772810347, -0.06180868621136399, -0.034371801468296694, -0.013673958490576498, -0.024026666573410786, -0.05104494558142866, 0.010401063384335702, -0.030882282762148244, 0.00798448161844632, 0.018631991992191933, 0.009478238787868408, 0.13483294027278359, -0.027453607522910803, -0.19986037628186512, -0.3577366573567534, -0.30932462890657353, 0.02497145202985485, 0.005892697928903751, -0.05337427147808781, -0.1769626267652046, -0.09246331998678836, 0.07970444753958807, -0.04506591332942122, -0.11993739758634417, 0.021737389198673674, -0.08131460570024804, -0.027088157296735783, -0.10444317497626943, 0.08506932752641047, 0.0005949469907429591, -0.025269163909920275, 0.01848290942240399, 0.042687897025437814, 0.06727935899428104, 0.008730120916970691, 0.03518925051682472, 0.10219302973170952, -0.1706795044454966, 0.02329728536745197, -0.08722710207921669, 0.04513044652148331, -0.23160789604876375, -0.17340741467770562, -0.08647686228351345, 0.12117045472338349, 0.023453322962480795, -0.27289594454961086, -0.08929639029325394, -0.08495659520955753, -0.054417531360799326, -0.05713450755507767, -0.018248144574034793, -0.031300011995901766, -0.13688351034692775, -0.07142340684202013, -0.11321684612396908, 0.05204434466190926, -0.08065338373171603, 0.02571470459380228, 0.07570050876706584, -0.041475681992599496, 0.048975615643892904, -0.12120098921557149, 0.014607557111375262, -0.07558183962542697, -0.009584380367972264, -0.22719934552660373, -0.1427154938369364, -0.3119200891038725, -0.2891543820308381, -0.1380468291454655, 0.04527194154369387, 0.21420100373621706, -0.033270656158328034, -0.13279412622601025, -0.056879343389852864, -0.1051534153081253, -0.1618408472728544, -0.1580950039939162, -0.2085852258001683, -0.10711921352566466, 0.009895963218126377, -0.08528474435036727, 0.03319266948457484, 0.013714050085260995, 0.05903173838919068, 0.09213770477598672, -0.055176924111545476, 0.053612849608597773, 0.06426750367085446, 0.04317728615291062, -0.18018395790329533, -0.0343621591939892, -0.17605448688841133, -0.3000403995915615, -0.2974721860151172, -0.3482745061971899, -0.27234066916274924, -0.0208896920774857, 0.04609432368325476, 0.2763232016277573, 0.08031988772275217, 0.14628747376783363, -0.01655383236700316, -0.028932912198743076, -0.22055623103156194, -0.10222467760298996, -0.10569670295136699, -0.05799640022890973, 0.047854075173440945, -0.10896003612743253, -0.08128521173436139, -0.01636800523586457, 0.030596275020281442, 0.09259775055206537, -0.03559513311324959, -0.032513318836633935, -0.024816023009691844, -0.13968627172918505, -0.19565752308747522, -0.22374208892599998, -0.37127626735121744, -0.35331601755066905, -0.33736837309658335, -0.3628572624951987, 0.025714118836917148, 0.0662984436191537, 0.23877176264396832, 0.28270071205535824, 0.11948486422590562, 0.10903369473165618, -0.03954240850375025, 0.030745039003943597, -0.05276542715318838, -0.08190884275403221, -0.010701138344462298, -0.07202211704346935, 0.04453585867392648, 0.07397639030250831, 0.004876288943737563, -0.0029800929384802472, -0.001006213174321539, -0.012092872326739825, 0.038937956503191755, 0.025200629839590625, 0.04469056229929049, 0.0020913155189728875, -0.1681271360931999, -0.10808671876679787, -0.26251575156381673, -0.368191194769046, -0.29802368378259264, -0.038249761865583404, 0.1416475310285097, 0.17583590842895327, 0.2524551147772397, 0.20292818976053745, 0.1477835617790278, -0.01022208439834758, -0.08862323719282092, 0.07978419965210969, -0.13591977836998378, -0.04774199141601566, 0.0015215371393465945, -0.11881961234553516, -0.13842948836880561, 0.032062202475959194, -0.08442989875670988, 0.03943914414410906, -0.03475998358030779, 0.0731277883616493, -0.017275372952198897, -0.008842890193596459, -0.04833511736054955, -0.09520580266038632, -0.14149473823194866, -0.27309303906283783, -0.28159171894102925, -0.23545672695589143, -0.13730312948721227, 0.07414931325377526, 0.1965005345469452, 0.3784676251288693, 0.2808461335605086, 0.03198750820380825, 0.027291795383702667, 0.07783058881249856, 0.09231521232273758, -0.038958874906410944, -0.009795341018536553, -0.09951845871887187, -0.13502684802321827, -0.16649847922255306, -0.04031599925811374, 0.05547274839774819, 0.03523943843121604, 0.02673400137652273, 0.03545590425088554, 0.057210449674958475, 0.09054669136659604, 0.07496071724386963, 0.04982937964618952, -0.0474720911723264, -0.226137863827374, -0.20654220743281462, -0.14707991602330195, -0.06282925398395404, -0.032824848663921685, 0.30198496275614717, 0.382971404964506, 0.45416789438157423, 0.09260674611764583, 0.02324575427272664, 0.23721347583068947, 0.041820139658896346, 0.16055330517634875, 0.06851033201339447, -0.07792146910864166, -0.06070237899489686, -0.10744627541048045, -0.1255801749142874, -0.021008698037111362, -0.05341600701656305, -0.09731021304488739, 0.0903261342031331, 0.09637571802077935, 0.036761236515363636, 0.014830371348889652, -0.03520925668277402, -0.06349202963914767, -0.05667116808631803, -0.1711917328365568, -0.036899769186321145, -0.1377073347324096, -0.12087406095641283, 0.01661289200506242, 0.06046528926799027, 0.1595102203964554, 0.18269237255613047, 0.09144912076853956, -0.0454723613200738, 0.09310047495731073, -0.018679106671741025, 0.10866735319599614, -0.007598275747291435, 0.14101716166766876, 0.02313149097545097, -0.11506753787222639, -0.13771364415213314, 0.06551033741226123, 0.012809480483167384, -0.034202046083631504, -0.01772909337855851, -0.05691950995732858, 0.029003288286233806, -0.09839018336258555, -0.0016183818399834779, 0.029713512750524466, 0.04516923694591981, -0.05663820225913421, 0.004368372457310914, 0.0035464000955718533, -0.016089738190268637, 0.018919360719351533, -0.01935612140166078, 0.09739630393755049, 0.144242030687282, 0.05029967821693613, 0.1981374447128018, 0.0657454709131328, -0.07041537255705796, -0.09602983478339086, 0.08447696541865947, 0.005778911638998293, -0.09538696239520135, -0.03777262472880432, -0.13162989379681655, 0.06309206581453795, 0.09037578160896349, 0.014084373828377132, -0.010840666609630246, 0.050096309413640766, 0.08731068148892585, 0.021809837908237942, -0.003138533905389834, -0.06701454565007496, 0.034836961255313166, -0.13548205309217945, -0.08370367029879452, 0.04469746735831125, -0.0299435218878299, 0.11283352606585147, -0.08325454402135257, 0.07275990670944778, 0.13797065069138137, 0.2891950077475563, 0.08239243528738657, 0.22653171155745566, 0.193363404578635, 0.1270931171209184, 0.02491101449724251, 0.15989810656837206, 0.05525306836216347, -0.06742594779539898, 0.04055392132203191, -0.011244915980354604, 0.049030516429237905, -0.013843629917169479, -0.038584366849008025, 0.0534079887569506, -0.027088685926818706, -0.09689080561286156, 0.006684058084240218, -0.008053420838942546, -0.10497225155531546, -0.07919299385720793, -0.045200266391958295, -0.25041886484826603, -0.15209159482498874, -0.1513534927153617, -0.08601223409418762, -0.04561359993105008, 0.10052474297487328, 0.1737553683271496, 0.08719223808696924, 0.08067112338405444, 0.1728846628442266, 0.10793657574271759, 0.13738222369394895, 0.15568904690072502, 0.1350199264137909, -0.040696406934631855, 0.05955327815867582, 0.02175350578384411, 0.07023661747139565, -0.08414578689435698, 0.033335984973751544, 0.03784211980469329, -0.05791450639540954, 0.09787582842600881, -0.04235913799483838, 0.00855700943933621, 0.008338427781427002, -0.02721948712465473, -0.01958493312850273, -0.009650545966932524, -0.2142932219772174, -0.0669516519866465, -0.2807568953889003, -0.21617906859266003, -0.08364826535607382, -0.035434066490968995, 0.0005154487912663011, -0.04058393236889991, -0.00531142528937034, 0.13564127952032784, -0.016866395979678157, 0.04268159051615316, -0.020331238478524385, -0.11143327769394219, 0.042902693201733746, -0.10404913850230162, 0.05506050198530671, -0.08106652430721606, 0.06835153040072157, -0.017258946958439575, 0.025983152352510114, 0.01605684476632399, 0.005566192479618565, 0.019907448227419012, 0.051076327980088806, 0.026170636204359908, -0.03372706198367981, -0.07375575454280368, -0.09400516070785725, 0.03840522656081842, -0.06364328439160082, -0.07616698519559846, -0.08563617086262673, -0.09619725208965792, 0.02783110114140868, 0.0015401549090666056, -0.040081963933640975, -0.007452932765441544, -0.042875753811295346, 0.06812041739480339, 0.05321710211088007, -0.07345850509621595, 0.07755975301734352, -0.05485311830302096, -0.0161362917848205, 0.07446085642845053, 0.07792674586330292, -0.007574269271444292, 0.04421531750988844, 0.025603072841568236, -0.0007647926735489391, 0.046765166669934105, 0.012489576978439441, -0.09846491879907211, -0.0602584708168396, 0.06423303283552169, 0.08420784329175166, 0.0483373100069753, -0.021890287063915204, 0.0830336745298932, -0.09315388386285722, -0.09248941446771375, -0.07942131127320481, 0.038033522075635304, 0.07831429195341351, -0.07897575241332806, 0.08280955331980172, -0.06268303911813858, -0.06937856157370985, 0.041565587204877026, -0.06325030175440355, -0.056294591169740754, -0.018445226462070877, -0.09559025493442352, 0.09673494842216926, 0.07303019859009358], [0.04262468897797453, -0.09297025104340786, 0.06860934998442988, -0.0411949178559502, 0.09707225038783376, -0.018106028519868575, -0.07618336143243461, 0.058336672455101546, -0.03538724693282003, 0.021554120781064848, 0.09519503844517938, -0.08749432648511779, 0.06259369482965303, 0.011285430940886108, 0.0939054300900759, 0.03058162497012179, -0.08396512973429514, -0.01843222286436101, 0.07037434117586142, 0.06735442645186451, 0.005690792498604977, 0.03665581557122158, -0.07077284158602914, 0.002694922882457651, -0.09136074443298431, -0.06237327383923141, -0.04636672613566278, 0.04260361843495267, -0.09051668419133274, -0.004269006446891391, -0.02642846074023529, 0.01085766252915446, -0.05770150816192943, 0.03457419210482526, 0.04326495024192845, 0.06274478233733856, 0.08986458087559805, 0.0962799823634608, -0.02614483181142407, -0.03868149424368571, 0.03026795153347159, 0.042929646671019055, 0.08344733435140779, -0.023111047147252903, 0.017982188254133454, -0.013259181477744061, -0.036941764555354396, -0.09508079742524977, -0.0005191655775629351, 0.008858111145685493, -0.006492559909829528, 0.0814104322671659, 0.018375428815624623, -0.07376735053582484, -0.05254226487876819, 0.04722710101558941, 0.08293718726787741, 0.058004781625538654, -0.0873837723944778, -0.03433312029346022, 0.038230192615980825, -0.050242273265079185, -0.09880083785053376, 0.03952963237283515, -0.10593333105680804, 0.07477135047649433, 0.004428253702072746, -0.0031922659700526304, -0.013042395932757269, 0.05808981407668103, 0.008837136243449851, 0.059231645490015125, 0.006165080709038392, 0.026414590852995398, 0.0835692926244854, 0.03541803339636338, 0.08275961062461007, -0.054206026972183, -0.02153565994789008, -0.023894386023653635, 0.034524876786129435, -0.027280003401481928, -0.032966222313789637, 0.08562750374130779, -0.0076517061027334965, -0.021555137728690582, 0.06488009731756615, -0.02656998665533464, 0.0009502619413912352, -0.04404902661609442, 0.07561733269962641, 0.05043343658559615, 0.022847891115286047, -0.08080600211419212, 0.07449618268846368, -0.056425088035009605, -0.09129658441771793, -0.012776774478437508, -0.11117607476821381, -0.11243007790032683, -0.06860902774174657, 0.07453294428992419, 0.02338139228469421, 0.07540611239490556, 0.09948486471998019, -0.042867448711347754, -0.0616524477567365, 0.07104217973774542, -0.043019942869944656, 0.018824870024509808, -0.06643355623440643, 0.08627535559630509, -0.036520930156049, -0.026024898860877388, -0.03042910403769884, 0.0991159386168494, -0.08424792409577415, 0.08416964751600726, 0.04895176489392397, -0.10987406286372861, -0.036437314645693795, -0.16256188304216485, 0.0013085432083870447, -0.07616908412981743, -0.09045374920694824, -0.07555822466683844, -0.19328331925675762, -0.06962168875783457, -0.12909427109260443, -0.09256399003977808, -0.04582721540496389, 0.0496731213092848, 0.1083617994889804, 0.08489877782167837, 0.052960642102233044, 0.027333592701046478, 0.07617814088104993, -0.04569528000486963, -0.02505521758002505, 0.017179186212598757, -0.05252993293700552, 0.07057716457307384, -0.0770433758926123, 0.042634135674436, -0.032212616772928776, -0.07091728939284145, 0.012065710295580862, -0.002991924278497234, -0.01695486894261343, 0.02079999452988682, -0.08393884084137648, 0.05414335339096729, -0.0015808831557097326, -0.024211347987687443, -0.16582426810532055, -0.17773597216336795, -0.024472411192255614, -0.13920292337207177, -0.11657898027748126, -0.14424486385072557, -0.12532897194119919, -0.04307402685130567, -0.09655195761425611, -0.041312114980051634, -0.08030304465910477, 0.09017016913589224, 0.002074324468918138, 0.09954734281725765, -0.06619127347152948, -0.07407480358431962, 0.03839732777921431, 0.07817380999739297, -0.0964955417134962, 0.09198803105387786, 0.01938100765771968, 0.09444702019937669, 0.06785828073211429, -0.0018658723906227188, -0.04232975112183639, 0.13551385622202658, -0.06632341587341671, -0.1192859650238242, -0.047818448574041245, -0.013204448224815151, 0.04925673738491003, 0.04949457234900876, 0.08767404355725011, 0.06886055166713966, 0.08530763333170845, 0.11385259981511502, 0.1201895905371747, 0.047079725435153756, -0.036440886398857605, 0.06494714355477081, 0.06154334385544921, 0.05303028756344753, 0.045434785796314145, -0.0438426441789402, -0.06416921188400514, -0.014157033807187688, 0.010420195391023738, -0.06820278482897864, 0.06874181904817256, -0.0925090417531978, -0.12064690168356659, 0.1107285143733133, 0.0780705894146783, -0.04430299560675575, 0.017570861131033993, -0.05668464733194691, -0.0823156449146769, -0.14978388474523055, -0.022210025186810943, 0.1979835009962975, 0.1255210675858488, 0.07643750679793605, 0.015354547183028845, 0.11377415091661236, 0.030279483082879328, 0.11588669053361889, -0.004871629879898022, 0.08813036672606227, 0.006560701328352676, -0.09038920770033744, 0.022245630007296745, 0.10105014425919481, -0.026770340669434116, 0.10399145308906588, -0.05253862541267425, 0.0603467615887689, 0.07217259522385885, 0.08366421485560781, 0.017946681217516237, 0.1910109144192672, 0.16042098304025973, 0.02949262631942487, 0.01242070850570879, 0.030893628790724367, -0.05383292262015629, 0.037164470852774086, -0.025946461717356414, 0.05405549922685042, 0.1802510135064945, 0.05010665374702613, -0.03006116874752564, -0.02611827867408025, -0.025283497323617614, 0.04427474090096944, 0.1677709811657756, 0.023873143866924094, -0.061697859271261694, -0.08187663453854184, -0.056769974645414424, -0.025743683679224395, 0.05329705835663336, -0.05429558271187493, -0.017449814368450587, 0.03289028732345886, 0.08017351834978709, -0.05372331420513236, 0.19926350034390142, 0.10816157142464468, 0.012731726888087505, -0.027239510900039943, 0.09923657529596171, -0.06658691082740438, 0.018950828614360413, 0.011708416185816075, 0.021047489397377, 0.09804262587896657, 0.14706294026063343, -0.0038871135848243263, -0.052310444813699765, 0.07682281011599776, 0.09188466859548514, 0.005439328774392899, -0.03712218954820623, -0.10189817093168713, 0.08661186277007997, -0.05369227855856657, -0.07705764602179857, 0.09471692274419058, 0.03977622392345054, 0.035924314376592055, 0.04916074642333152, -0.1363191742563585, -0.13855693584458842, -0.08743400404039758, 0.16770046443637868, 0.06226700365330342, -0.049887649038100966, -0.09690722925754429, 0.08001769244409346, -0.08729980064726611, -0.015453877640744369, -0.0006694589742022153, 0.08517934646112377, 0.04852289712542027, -0.06604526478861618, -0.10041055182412088, -0.06686119560861772, 0.008324876994003388, -0.11667244512984447, -0.2119377817828004, -0.1361776825458978, 9.209438051177965e-06, -0.008371749864631456, -0.03945528844270716, 0.09123612723589848, 0.04468481153155706, 0.011678275122513541, 0.03703781253173402, 0.03793675369933863, -0.13372997881493276, -0.17091761452514415, -0.05248544393021058, 0.20985046300133905, -0.011066930391588516, -0.10336559452650146, 0.062291591575149484, -0.05049281269531164, -0.15820960470514348, -0.026344750960511504, -0.03487262088350732, -0.021823868022632958, -0.106041374912328, -0.05365282149229775, -0.10196130960866459, 0.027309724266269497, -0.07956528380140192, -0.021204382019920254, -0.10898499730032944, -0.1370511518775376, 0.018953421435331998, -0.0014686706927938295, 0.041645065694548594, -0.05728980649379598, 0.028447377167713474, 0.08237702170177856, 0.02595588812864157, -0.023839188201764432, 0.02926710218192031, -0.12743228235344564, 0.045387111671950836, 0.1391478754688631, 0.02081981321444286, 0.07303986310538994, -0.10435991279440686, -0.023792527659325845, -0.06014431588784352, 0.04592188177930224, 0.149543901547833, -0.005025347027753214, -0.161746789543219, -0.02354164943972117, -0.06265718038303726, 0.005006192337257906, -0.10718921958599952, -0.00685192508575313, -0.09426546800063434, -0.04924083186995762, -0.09062542002196874, 0.07879862626084073, 0.004417030221104245, -0.053778895747840956, 0.06316138669720223, 0.09700187788657678, 0.03916124673836662, 0.009400188222898174, -0.07816262854250743, 0.04072906447903162, 0.12951343820428948, 0.1651754011797492, 0.10664000630179088, -0.017601228373084168, -0.08258639348574703, -0.14521397700986088, -0.23199000443623963, 0.05418779809310619, 0.11147509224614002, 0.0116149678619122, -0.18046990514278968, 0.01749677777811358, -0.14894990943175138, -0.09169050900230176, 0.017087422336915913, -0.1143835104774244, -0.054363419073857173, 0.0032195009163247, -0.1109132179095131, 0.0681078495016958, -0.10059747270869218, 0.012574258827355302, -0.01926882195840504, -0.009895326982865776, -0.021640925294613762, 0.0012288970321323535, -0.005134059765349234, -0.033863901519704996, 0.08724389876876809, 0.06564197062836256, 0.06553935123511417, 0.02550083508767493, -0.031159641833893467, -0.0021981170111434974, 0.015521232019307475, -0.033846885855784145, 0.1116386431609394, 0.08849268235534931, 0.034261841076615104, -0.013960298189405616, 0.06564072943702082, 0.1025672685700218, 0.0692290841379739, -0.028257544283599705, -0.03687005168015439, 0.01067640141903264, 0.005600834574090032, -0.05957892558060236, 0.0789526530544167, -0.03925122425902083, 0.022304458671504726, 0.05374458774767228, 0.08210844105475189, 0.06603827910122911, -0.1124425376192911, -0.020182707139473198, -0.09376882486441285, -0.05516546511497196, 0.13209762629789062, 0.23215932866771008, 0.0847143193131554, -0.21888967159888467, -0.07228747813384795, 0.027213209303542988, 0.17482354878414386, -0.007123334122146756, 0.26265071043742944, 0.08805201750521455, -0.06835900262533808, 0.0413327860481677, 0.0704368087254809, -0.050669061715051776, -0.030270762202100274, -0.15540017951434415, -0.1385165908856175, 0.04189471883852665, 0.09402033292651386, 0.051245670242783606, -0.0038597289296657166, 0.06775519544682021, -0.09273201460318779, 0.037136184499638916, -0.030080744673344116, 0.11603362855476486, 0.08570228038709056, 0.01958721348919625, 0.14459221873282435, 0.07912160184585967, 0.02094887700882807, 0.022222532167978294, 0.015018937119137743, -0.05740823152089073, 0.2546367901469963, 0.15421660836567788, 0.16629855272196406, 0.17377755958323834, 0.00240356662376621, 0.004408668102038636, 0.03343488225246804, -0.07586883954769184, -0.02685549827819531, -0.09120623817702048, -0.0631791833866222, 0.010963642309445805, -0.019707424279330286, -0.0007864421589045545, -0.013275058600679537, -0.09906707349701627, 0.0625107867185062, -0.0824289151427345, -0.04350018006501582, 0.14496474787314426, 0.11578101594425415, -0.07096078374424614, 0.07537713869741344, 0.06728385992043097, 0.14162676363757432, -0.09755660246378314, 0.022803997898907965, 0.17295375985834888, 0.18480112038399557, 0.13048785691903594, 0.2386112543955028, 0.011118120588445426, -0.1102208525718211, 0.017370048936438245, -0.02847884246585758, -0.13586437012912092, -0.08922316372646373, 0.037412192023188046, -0.06021550139445816, 0.036297570225177024, -0.026367439303244342, 0.03297663922445895, -0.017945370779798308, 0.019693506733830024, -0.13697232929269304, -0.09650136170063209, -0.06005376746774046, 0.03242366625779744, 0.14974657424278606, -0.05522525589653337, -0.05361193476257322, -0.21016943427372964, -0.14196200216825663, -0.15225618019141773, 0.03406646230988287, 0.13478242630419193, 0.1134523565286625, 0.2378930138424343, 0.1167688237919117, -0.13262453725587905, -0.1324958159198151, 0.04374716660340933, -0.1311177370116436, -0.06826517209157815, -0.13150599874743873, 0.031486787578837876, 0.03958371141692907, -0.09988216222476332, 0.017071539566792866, -0.06012354198689438, 0.04700182986367763, -0.10064662719259042, 0.06317220290148656, -0.13162296466701554, -0.13793978865197903, -0.09933193644030901, -0.08681414722952574, -0.1269550172799116, -0.05818449180484664, -0.1366132794342701, -0.27263731686427223, -0.20295074377935926, 0.10626882906956421, 0.09156659692745434, 0.21358313625995382, -0.07360510163512368, -0.057612179544040035, -0.2641062918368518, -0.19872333245977974, -0.08909104930483926, -0.226389747134983, -0.2230635568051965, -0.10105586868436543, -0.06635424109056406, -0.00397453996012621, 0.00020290199829225126, -0.062060026755669996, 0.0329545132378809, 0.06469222111088313, 0.0355987035065866, -0.06562753364201152, -0.005284376075344768, -0.07076119454648382, -0.08793274731707028, -0.06005431164708846, -0.1136476428459137, -0.18495771371704808, -0.25700398781345, -0.16456723659801556, -0.048849166173400835, 0.09079525724109133, 0.0633718791989083, -0.03465479430574243, -0.10183373258123143, -0.15217727360834746, -0.3022995516735915, -0.2848471337067693, -0.1477880027751428, -0.23296628281080745, -0.0761509660643746, -0.07933443003138087, 0.020345154548715917, 0.05951974807921442, -0.06396698453878413, -0.0677151039822297, -0.0567502309762304, 0.021097315038865312, 0.06741457972223067, -0.02435795251497376, -0.10190705231340447, 0.023801017926014002, -0.11545866534640985, -0.18066335641182713, -0.27941906388157506, -0.24762798582676027, -0.09753906701264731, -0.06011175300481218, 0.18846800408094144, 0.18789432100565506, 0.17638830241531428, -0.00037503198231006067, -0.043746211528163985, -0.04067137248121422, -0.2598825914404939, -0.13658722726156225, -0.22927990087051273, 0.004580565333740722, -0.12308646211362755, -0.013094435395767098, -0.09856119398221919, -0.026718139320201423, -0.09592493763825488, 0.03599531113070828, -0.07893986718005233, -0.041632636547521834, 0.07101607538873494, 0.02649143996634757, -0.01791178897854307, -0.1873496661015783, -0.07793055305604332, -0.21801289288651893, -0.1815802317141311, -0.02721405985339402, 0.056495822490836144, 0.0037189271714275257, 0.08260280547140939, -0.018656976318933777, 0.14553714915295826, 0.03621173396760972, -0.10750468386419759, -0.13310136462801692, -0.31062098555448925, -0.17056457227624866, -0.19886754614732682, -0.014280133939416583, -0.08224394632853214, -0.012763120287282305, 0.07090471450806202, 0.10128880622771815, 0.03941017961545839, 0.024726925057404453, 0.033013042312835306, 0.048468976531805125, -0.042748255820437994, 0.044247999651516545, -0.05052588251571125, -0.04710832039054901, -0.14876178448691135, -0.17933063762674065, -0.19260629196418533, 0.009994281743480963, 0.0010180539022685564, 0.06389680655480441, 0.0419129596069834, 0.08745877153735812, 0.10730319196705716, 0.0718318652635629, -0.06083539773914848, -0.10561083065904461, -0.26736926028987684, -0.05656237906466314, -0.037892157157499474, -0.051603617897741504, -0.07627543435421658, -0.056446888734384006, 0.03646973356560216, 0.08043999995022302, 0.040021013886110755, -0.07525475116819205, 0.02970162427741105, 0.08374651750696213, -0.02499642990100808, 0.027924571349080964, -0.06342661847442377, -0.0918713211674064, -0.08308541631678751, -0.029039109599244932, -0.06494535414913845, -0.05505489351769556, 0.13720331299722874, 0.2084251649934219, 0.12238195781348143, 0.1145114177950634, 0.13294813104418549, -0.07195650135662142, -0.1859604824185426, -0.0825607229363709, -0.142391410846833, -0.0914034736400599, -0.15089130212633117, -0.05722703196753831, 0.003846468651925882, -0.08880126576261359, 0.06492167529017245, -0.02307150559721113, 0.014678354299068587, 0.05619129390293334, -0.051837067708059806, -0.08295479789303828, -0.033103003163916886, 0.02832723425224637, 0.06664954484884848, -0.035478111594852965, -0.1422480453940023, -0.003328821055768002, -0.06670069717380801, 0.03824775009647194, 0.006254781832188321, -0.027174075117690266, 0.06390822660577622, 0.1072711146444446, 0.1229029306354062, -0.0613110759877198, -0.11240006689958885, -0.021696731003327634, -0.05709547042547678, -0.10576653609389922, -0.08202663623614011, -0.028929524757475976, -0.020898731191702952, -0.08701680692238227, -0.04098308453087172, 0.014006947758593213, 0.053839516896713686, -0.08424386271481564, -0.08163088674616699, 0.07286342374009622, 0.036006260725227085, -0.05610035907979301, 0.02051157685390226, -0.07414111044500686, -0.0730848466115057, 0.06635941657405013, 0.09233914353174547, -0.05677531153002206, 0.004528791857300749, -0.03821808259886046, 0.019426939549134947, 0.04644867183570911, 0.12052126734063856, 0.11111125065671908, -0.01286399888260402, -0.06131672547172828, 0.013428531002018485, 0.04205919698763897, -0.0941092683726476, -0.05368323340976165, 0.0253292621000954, 0.09579293930209692, -0.01983318130096358, -0.08988316617213289, -0.08872488713199041, 0.08496836403991051, -0.04806213983419361, -0.01931578109194368, -0.09987029400537217, -0.011204143183383294, -0.03771565477242908, -0.08472800327041895, 0.077323374210945, 0.09491075013237614, 0.012876463586369347, -0.010878711947847085, 0.04877806047545499, -0.007408326411577953, -0.0032553254900328957, 0.005631412541705833, -0.02594053902026337, 0.08128045106157758, -0.002043806891338344, -0.06592777114005384, -0.03633582384473208, -0.09891842680437221, 0.008271784126191424, 0.007417023643947769, -0.05890658112809445, 0.08530064485242078, -0.09425687929658988, -0.09417147106238354, -0.0037484358609442686, -0.0003421928594647128], [0.020546004122702605, -0.06431560277260517, 0.07914871347798016, -0.05743166308730792, -0.04250939634625295, 0.041008305470747464, -0.032724336474231744, -0.012900265872043876, -0.005383240395947328, 0.024493091622896673, 0.08782626981538447, 0.019012766713065954, 0.05368073557835769, -0.09098903330259668, 0.0879752713182548, -0.056670367558763896, 0.06259490433237727, -0.03239113402777492, -0.051741386307415205, -0.04089689439296618, -0.02839911882046546, -0.08762579075012636, 0.09597337023471517, -0.033867151290114667, -0.013795465844840565, 0.0024879119689658336, -0.03075737351403296, 0.0004931340308794441, 0.024770131672080448, -0.045513787958755964, -0.05720887444262479, 0.05673621133579218, -0.057066945088358884, 0.09514291601959626, -0.019934761130240283, -0.016259895154920066, -0.06152901546849676, 0.07031790655057976, 0.002487792710289042, -0.06397984412660014, 0.028641970691040058, -0.017082105576679583, -0.06638478889504199, -0.028727625235719652, 0.06714560159157977, 0.014585050187728316, -0.06113752526847586, 0.0690411457912321, -0.04417104578884228, 0.008683348550766551, 0.038121677057774056, 0.04312855884729433, 0.009442186081445841, 0.0003546294475199191, 0.0781061785155458, 0.00726551577422227, 0.020621559696521394, 0.008284202701043325, -0.09220854974808146, -0.09038953953596487, -0.07673630362577463, -0.06326813883170192, 0.09698711476084805, 0.01677003002084377, 0.01347522159006077, -0.07714046569742622, -0.021557089492454034, -0.06811170758012705, 0.07059374401974242, -0.01850256476727242, -0.03683311840353835, 0.031048105516660877, -0.09001469941621161, 0.06703548240920305, 0.06757749844171322, 0.066764304644319, -0.003902291447704228, 0.06911216552839493, -0.003477086234881907, 0.023682374564223046, 0.05371361249796905, -0.021712151731776624, -0.08758085490331938, 0.026783295414308517, 0.05061848566338842, -0.0969969068261682, 0.035123374722608874, 0.05671419783301701, 0.07514829326499164, 0.02298489661209132, 0.05078437099575313, 0.011183874124056598, 0.0302816377872204, 0.05915246695836741, 0.008031974482265758, -0.06742097870362818, -0.10549233442347805, 0.00983677286401816, -0.09552970317677209, -0.08409895068954383, -0.06416543351679574, -0.0370241073236991, -0.028298409004475448, -0.09505355340544606, 0.04067159012263784, -0.09596265874798145, -0.03534233326670737, 0.011225513733916047, 0.0019794690122255025, -0.06420440297901714, 0.0860398702105506, 0.018645976947946896, -0.020580851664669123, 0.04524005540636458, -0.07579562451014965, -0.04067265317611824, -0.09732212126441493, -0.050250859893806024, 0.003454371122903531, 0.028665590438895466, -0.08515365495060072, 0.01843226098711875, -0.08585434819849465, 0.008204317517686893, -0.07895961048717422, -0.08915899293850693, -0.05562111976350508, -0.08119936262615801, -6.371835124631909e-05, -0.007250461052640239, -0.03883109219636068, -0.04120462462532511, 0.05169012134672045, 0.03294982012819574, 0.07511648643116672, -0.049592216668387624, -0.09056138034343092, -0.02472574844821744, -0.003918991292024137, -0.007759166805993173, -0.015072788728649741, -0.03906221134322965, -0.07757293618587341, 0.04578652711943671, -0.057945370004381644, -0.0250994242539491, 0.0958418559662224, -0.04568364274373048, 0.0011548247145257392, -0.06497819021894374, -0.12168645042555491, 0.08888992725321909, -0.08603690652520056, -0.09054546721872678, -0.12214906744021185, -0.11890300384541917, -0.12278021526748366, -0.1988387503470068, -0.21793360132124662, -0.1555405614402232, -0.14680090388322456, -0.16136858347229419, -0.09345762656468935, -0.026819802551343117, -0.06773258466331387, 0.024390347890772067, 0.025412065442376154, 0.015773776814350077, 0.0667611274196363, -0.023693596833753123, -0.057944314947894406, 0.030081005893367832, -0.08564777738902189, -0.0035919716149761445, -0.10466802269499711, -0.008551619060271007, -0.015236593186773376, 0.04863198595454353, 0.11826310124007416, 0.10677109162456776, 0.10961759433978231, 0.19822289447699332, 0.08383389124407353, -0.012418163739233259, -0.029820147442376144, -0.1304315124452174, -0.15974359733104074, -0.24227563252644171, -0.22469070133867924, -0.18266920879620716, -0.013107676947734386, -0.0851279363462973, -0.1044109540975077, -0.09139878655685867, -0.07508276315992787, 0.013968464050532167, -0.03958913712350811, 0.026307845612748352, 0.06444854517628136, -0.08208701747376652, -0.024384656751190278, -0.09790824611544795, -0.1441950809039077, -0.12637272094520988, -0.04711901742898621, -0.06941918716817078, 0.12297735395190643, 0.21720352807399762, 0.15226603407336217, 0.34209536819084624, 0.11756535556890339, 0.1689128564158158, 0.0834970901721678, 0.0932374536564856, 0.004150751566940849, -0.07445945039429216, -0.20525504574578002, -0.04593186732911861, -0.182455078192408, -0.1349510142827436, 0.033448268583597444, -0.05248379038356215, -0.026729141193740296, 0.015151249471876894, 0.09488713091617551, -0.07800531558589509, -0.028206282432043216, 0.02800862929044952, 0.06426785197888428, -0.022717230702646498, -0.055085278033888914, -0.11317762670939843, -0.007236238959918779, -0.07365533723382099, 0.040985282275997625, 0.1087270587195537, 0.05010244912423649, 0.09988987280942314, -0.0636979004270914, -0.02866408248584333, 0.042420037526292496, 0.1217858190031637, 0.027174008324730756, 0.06952260547420398, -0.01768303065752403, -0.12067809246192492, -0.1486369794070377, -0.058409142463873825, 0.013575046266742344, 0.021763745987178985, -0.07498751623604874, 0.03426456306798015, -0.004851717793262106, -0.043059663770534586, 0.03948987072133126, 0.0750985899340185, -0.049983006137729956, 0.0018631842240771604, -0.03330631592479367, -0.06323978985773596, -0.0012149239419494875, 0.06984028138649903, 0.041957573790194796, 0.1355436146741673, -0.03598416792124699, -0.17917342248768062, 0.01733493814556687, 0.08969188636685436, 0.14267221694231363, 0.27212898931036056, 0.16217648071813304, 0.06614881493758058, -0.09831260108169147, -0.08709361310741208, -0.12189365722974019, 0.053595584227501054, -0.01080754109649833, 0.050562051299958985, 0.05781731447549572, -0.09474232785011194, -0.037929258302833106, -0.052559857491718175, -0.038140357919021435, 0.07360392725140404, -0.026825486003745735, -0.02475533872058764, 0.2189344409706194, 0.1694005038440411, 0.018936088023095276, 0.1990724071890389, -0.048361358211755634, -0.13960826385254102, -0.02865968746319027, -0.06956029012631769, 0.08990398290930428, 0.10265919277693325, 0.11312426567956592, 0.23173422669365218, 0.10098912141012022, 0.11453418177702676, 0.08185106367162086, 0.09589555344992524, -0.006776213099918607, -0.058174419686967384, 0.03206519029907363, 0.09453986198410243, -0.007556744350161992, -0.09920512681398352, -0.06067232938886359, 0.08053589254456117, 0.06828352662807578, 0.05991981036783906, -0.04527847901967082, 0.06880905858367112, 0.09777396690041289, -0.010611187692492847, -0.01646437363029836, 0.11617113264654909, -0.11335163973257803, -0.0775626583702477, -0.10556088027077709, -0.012936836605384638, 0.0886010710003356, 0.15322338181770181, 0.1218508572801491, 0.06625567446993351, 0.048666897017971104, 0.0396527313814361, 0.12214849766543769, 0.06424617419187412, 0.0728425112587293, 0.05526684362941213, 0.07964403409346833, -0.06963487046474827, 0.07328588271936073, 0.07698041061313181, -0.03861293198444906, 0.09254467457169195, -0.04612299829588274, 0.018435855464635446, 0.1648227711942416, 0.02225965242364368, 0.10275478747756377, 0.13460100424519758, 0.06628474679145258, 0.09554574788973991, -0.07320806174570789, -0.10145967577411272, -0.20167536035583455, -0.06803889008715089, -0.02887964333441644, 0.050285059672837154, 0.030978029079383056, -0.037917609820836994, 0.058397194853932695, 0.010283219871858902, 0.09172151313184664, 0.019596670893236884, 0.08270078230941273, 0.11499268247683087, -0.05482887117021995, -0.06910231449068456, 0.08688136255536077, 0.02041362518420311, 0.011035458440439225, -0.051947545515700265, -0.011799631716887636, 0.0541884043280495, 0.15822670528718902, 0.10430035583490103, 0.05577523808614782, 0.0486350740936137, 0.024046715446297058, -0.030523558214766548, 0.020278305595856964, -0.14081513602286166, 0.0023778433253211356, 0.09560220845597554, -0.04721303620712148, -0.012004738366419168, 0.1132590994399627, -0.06065297536802702, -0.06365232205160544, 0.04498778735908423, -0.00996989195034381, 0.046564828617632434, -0.05643123567573835, 0.02107768203951289, -0.02527586299497208, 0.04383236781737578, -0.046653335991897825, 0.08472098335435833, 0.044046738650126094, -0.0024932599624504052, 0.07476926186011072, 0.058719889336566196, -0.049810622747957646, 0.03532326237198582, -0.0038594648928248682, -0.04993850238058562, 0.0374390828028187, -0.12013524248511752, -0.008413978192035584, -0.08577632937861834, 0.05254568953753272, -0.08701155936975431, -0.09448375950148369, 0.020203217501096483, -0.03799799380199304, 0.02987366684463201, 0.07236198677508716, 0.035159970597040915, 0.05377821804099457, 0.052253181145664976, -0.022116049213205955, -0.10504502239472147, -0.12474142428158617, -0.08767263217853044, 0.010944124932318115, 0.02380168468307165, -0.09710849846246014, -0.02837131826441759, -0.004109413037698772, 0.11224067274177642, 0.036236372274637337, -0.0602528245246884, 0.019632345284337615, -0.1221834747631173, 0.01829484921121493, -0.06201550268214568, -0.017951831255011125, -0.07163224725136327, 0.01611763588344104, 0.01811004374349929, -0.1184410548407058, -0.143990671866222, 0.03208146841721942, 0.041218552415059936, 0.0033638984200387366, 0.05515105988597363, 0.051892559301550296, 0.02242403321513722, -0.045593963668545234, -0.12815348560600645, 0.024408604389437576, -0.007881698220228538, 0.06298549885910194, 0.07716296402973487, 0.05793535514099973, -0.01654838325924582, 0.048477295023169144, 0.054919893913142996, -0.03609346458503935, 0.050025757213078934, -0.13323595459531587, -0.0016631661627010482, -0.030358211035272305, 0.011213421928233686, -0.06520273920786138, 0.11166598478689929, 0.018832746840487687, -0.10479666036797762, -0.10439598318952946, -0.1610987985737941, 0.03127196956318841, 0.0450647172794447, 0.01911357857555761, 0.11097434194416884, -0.046825666730605515, 0.020653854607176548, 0.07679678471287843, -0.043526079118598786, -0.0412022279971399, 0.03135762797207402, -0.09203825379675473, 0.041735761672180065, 0.09523078762001541, 0.006052411646469036, 0.030740408981041016, -0.052712146517388404, 0.0841763271474155, 0.08600319505888719, 0.01993627219245643, 0.025258102381675657, 0.025594176337488384, -0.05046417213968145, -0.046553997541786366, -0.0553077232177594, 0.03922957163349299, -0.1514410890849988, -0.06992935911117347, -0.07680354217745504, -0.0346150640179143, 0.08514793423766692, 0.025557544074225797, -0.07282239401456443, -0.05667177536065846, -0.016891219396614632, -0.14743634740269673, -0.002239463836950231, 0.05084686270906452, -0.0016970990332800472, 0.08047079070100763, 0.08017343437388641, 0.010961636066288484, -0.04762962951748443, -0.03113717771551715, 0.09831413960875829, 0.05600374367684258, -0.06485105114285915, -0.02587073034100472, -0.05998179370673844, 0.027786767298315647, -0.1294736201665348, -0.14322022229882705, -0.08347788501165915, -0.16198696496230508, -0.16600946392529073, -0.06921111183994708, -0.09596446379847415, -0.0952205793554074, -0.04359463371510014, 0.03452385281034747, 0.015955638574128062, -0.0031457862431393357, -0.05601822633674738, 0.03682829868157949, -0.14622242888720766, -0.1309026259967959, -0.036372941796411, 0.06245562573267673, 0.02107085986540924, -0.06824790611730874, 0.09763187457910087, -0.0760421012215618, -0.046810704152747525, -0.037846227843479734, -0.0966499694957945, 0.0163885335361255, -0.08817732116120393, 0.018710731148258206, -0.042123536750374016, -0.10830923217640152, -0.1998805175264543, -0.019427637776440423, -0.04007933256314442, -0.009130779850116844, -0.03561739282658983, -0.05951197513538212, -0.02752309784969549, -0.06680307251648013, 0.01442204178975075, -0.08074687723166689, -0.12787010547196798, -0.12004211934058759, -0.03335841467423889, -0.054493248404762336, 0.0023399817815698202, 0.008047416132625182, 0.01611089456834352, -0.008097856607555465, -0.03693006037790321, 0.03578737090160694, -0.08579827712928921, 0.04755980796604187, 0.025576322810382166, -0.07238235902317168, -0.09958055256182266, -0.09235424478135522, -0.07160694269048208, -0.1435567911016099, -0.05318516299454811, -0.06272570121827256, -0.07952260320490105, -0.18873183338041924, -0.0971535151201615, -0.1626993376835888, -0.14247301133434595, -0.033617353394992514, -0.045765918558990155, -0.08228776299482878, 0.04043241113244373, -0.03523329560707156, 0.09176986129857263, -0.05074139119919429, 0.01958912459384511, -0.07425576964501378, -0.0663283903309643, 0.008159418523996112, -0.09451695284719674, -0.03347083660422108, -0.025668121842830755, 0.018486009159421186, -0.05671111070642666, -0.032496364148469896, 0.011225440437939958, -0.07484466760126836, 0.014627864508100257, -0.046597386482572736, -0.05091273043345521, -0.12723133359073283, -0.21164933208298317, -0.21156990680708587, -0.0780563298991589, 0.01587643058885036, -0.048973872436249476, -0.00995445742908262, 0.012260159084128733, 0.06767590250146693, -0.056879483581122, 0.07246084405728843, 0.08454766039086768, 0.05102698671079911, 0.030149133573329406, 0.0724930032306213, 0.006987286794974817, -0.048009195260991434, 0.0666442413166832, -0.009662070875148799, -0.052513026658369155, 0.02970283110838096, 0.037083336334065325, 0.02512519671296041, -0.02095630077187561, -0.008790307306254358, -0.023174494932949555, 0.009309375651767638, -0.08323206907827424, 0.033516096112420485, -0.12755220190585925, -0.021795848025137305, -0.06934733830360047, -0.17545088553284527, -0.14964243996667145, -0.10307416350080245, -0.016184194742630477, 0.07233763592369784, -0.12219797190139708, 0.09413738265813762, -0.02581944705706454, 0.031863256231803874, -0.042132138345893445, 0.06821545598274394, -0.05888446778373309, 0.03249122745673813, 0.03231437941146392, -0.021770350439203057, 0.003987683971290901, 0.11399298374734727, 0.013788173547427205, 0.04601219379669168, -0.013358190278977514, -0.04938750353218964, -0.04898331615905879, -0.030370414927523865, -0.003895573861144281, -0.046894369561726365, -0.15684135314879985, -0.011125745417133607, -0.050313243929973155, -0.12928704883021835, 0.006934042321602693, 0.03123255112963687, -0.0536811951156574, 0.06094170711680507, -0.024120782797078254, -0.06391378064577255, 0.027940202577681917, -0.006579002705634575, 0.09079641023690285, -0.035329388244807185, -0.03927223759292769, 0.0506930816317227, 0.09218936904087519, -0.0836052187200677, 0.08187171850887956, -0.051682467670661335, 0.002211532648006962, 0.0493690059818015, -0.019571967035950953, 0.13573632084478005, 